<?xml version="1.0"?>
<opencv_storage>
<cascade>
  <stageType>BOOST</stageType>
  <featureType>HAAR</featureType>
  <height>24</height>
  <width>24</width>
  <stageParams>
    <boostType>RAB</boostType>
    <minHitRate>9.9500000476837158e-01</minHitRate>
    <maxFalseAlarm>5.0000000000000000e-01</maxFalseAlarm>
    <weightTrimRate>9.4999999999999996e-01</weightTrimRate>
    <maxDepth>1</maxDepth>
    <maxWeakCount>100</maxWeakCount></stageParams>
  <featureParams>
    <maxCatCount>0</maxCatCount>
    <featSize>1</featSize>
    <mode>BASIC</mode></featureParams>
  <stageNum>15</stageNum>
  <stages>
    <!-- stage 0 -->
    <_>
      <maxWeakCount>4</maxWeakCount>
      <stageThreshold>-1.8761001825332642e+00</stageThreshold>
      <weakClassifiers>
        <_>
          <internalNodes>
            0 -1 24 2.8473045676946640e-02</internalNodes>
          <leafValues>
            -1.2454541921615601e+00 1.1643723249435425e+00</leafValues></_>
        <_>
          <internalNodes>
            0 -1 125 -2.3826677352190018e-03</internalNodes>
          <leafValues>
            6.0487931966781616e-01 -1.0844535827636719e+00</leafValues></_>
        <_>
          <internalNodes>
            0 -1 60 -2.8687710873782635e-03</internalNodes>
          <leafValues>
            -5.9386092424392700e-01 6.5531444549560547e-01</leafValues></_>
        <_>
          <internalNodes>
            0 -1 92 -4.4989807065576315e-04</internalNodes>
          <leafValues>
            4.2530819773674011e-01 -6.4166438579559326e-01</leafValues></_></weakClassifiers></_>
    <!-- stage 1 -->
    <_>
      <maxWeakCount>4</maxWeakCount>
      <stageThreshold>-1.0320447683334351e+00</stageThreshold>
      <weakClassifiers>
        <_>
          <internalNodes>
            0 -1 59 7.0053637027740479e-03</internalNodes>
          <leafValues>
            -1.0755594968795776e+00 9.4522655010223389e-01</leafValues></_>
        <_>
          <internalNodes>
            0 -1 16 2.4895545095205307e-02</internalNodes>
          <leafValues>
            -7.6018422842025757e-01 6.4707124233245850e-01</leafValues></_>
        <_>
          <internalNodes>
            0 -1 178 -1.1908749118447304e-02</internalNodes>
          <leafValues>
            -1.0315594673156738e+00 3.8552916049957275e-01</leafValues></_>
        <_>
          <internalNodes>
            0 -1 58 -5.4678302258253098e-03</internalNodes>
          <leafValues>
            4.2800295352935791e-01 -7.6988786458969116e-01</leafValues></_></weakClassifiers></_>
    <!-- stage 2 -->
    <_>
      <maxWeakCount>5</maxWeakCount>
      <stageThreshold>-1.6180565357208252e+00</stageThreshold>
      <weakClassifiers>
        <_>
          <internalNodes>
            0 -1 40 3.1816072762012482e-02</internalNodes>
          <leafValues>
            -1.0980472564697266e+00 8.8761222362518311e-01</leafValues></_>
        <_>
          <internalNodes>
            0 -1 126 -2.7874731458723545e-03</internalNodes>
          <leafValues>
            5.7584655284881592e-01 -9.5705199241638184e-01</leafValues></_>
        <_>
          <internalNodes>
            0 -1 48 -1.9206040306016803e-03</internalNodes>
          <leafValues>
            -5.3507930040359497e-01 5.7924908399581909e-01</leafValues></_>
        <_>
          <internalNodes>
            0 -1 117 1.1905761202797294e-03</internalNodes>
          <leafValues>
            -4.3753013014793396e-01 5.9388738870620728e-01</leafValues></_>
        <_>
          <internalNodes>
            0 -1 131 2.4483431479893625e-04</internalNodes>
          <leafValues>
            -6.0529083013534546e-01 3.7823465466499329e-01</leafValues></_></weakClassifiers></_>
    <!-- stage 3 -->
    <_>
      <maxWeakCount>8</maxWeakCount>
      <stageThreshold>-1.6991137266159058e+00</stageThreshold>
      <weakClassifiers>
        <_>
          <internalNodes>
            0 -1 36 7.3963222093880177e-03</internalNodes>
          <leafValues>
            -8.0172491073608398e-01 8.1655687093734741e-01</leafValues></_>
        <_>
          <internalNodes>
            0 -1 108 9.5203379169106483e-04</internalNodes>
          <leafValues>
            -6.8346661329269409e-01 5.3151273727416992e-01</leafValues></_>
        <_>
          <internalNodes>
            0 -1 146 1.2288507074117661e-02</internalNodes>
          <leafValues>
            -4.7015976905822754e-01 5.0065356492996216e-01</leafValues></_>
        <_>
          <internalNodes>
            0 -1 95 9.8117721790913492e-05</internalNodes>
          <leafValues>
            -8.0711227655410767e-01 2.8774899244308472e-01</leafValues></_>
        <_>
          <internalNodes>
            0 -1 128 2.7904286980628967e-03</internalNodes>
          <leafValues>
            -1.2905931472778320e+00 2.1495053172111511e-01</leafValues></_>
        <_>
          <internalNodes>
            0 -1 79 3.5901024937629700e-02</internalNodes>
          <leafValues>
            2.5692072510719299e-01 -9.3151849508285522e-01</leafValues></_>
        <_>
          <internalNodes>
            0 -1 87 -5.8529395610094070e-03</internalNodes>
          <leafValues>
            6.7705589532852173e-01 -2.6511716842651367e-01</leafValues></_>
        <_>
          <internalNodes>
            0 -1 61 -5.0899917259812355e-03</internalNodes>
          <leafValues>
            -5.4406011104583740e-01 3.4597626328468323e-01</leafValues></_></weakClassifiers></_>
    <!-- stage 4 -->
    <_>
      <maxWeakCount>10</maxWeakCount>
      <stageThreshold>-1.6345642805099487e+00</stageThreshold>
      <weakClassifiers>
        <_>
          <internalNodes>
            0 -1 123 -9.8871327936649323e-03</internalNodes>
          <leafValues>
            7.1853333711624146e-01 -8.2749247550964355e-01</leafValues></_>
        <_>
          <internalNodes>
            0 -1 13 -9.1455848887562752e-03</internalNodes>
          <leafValues>
            4.7464069724082947e-01 -6.4386850595474243e-01</leafValues></_>
        <_>
          <internalNodes>
            0 -1 22 7.8804548829793930e-03</internalNodes>
          <leafValues>
            -1.3413336277008057e+00 3.3279284834861755e-01</leafValues></_>
        <_>
          <internalNodes>
            0 -1 181 -7.1976857725530863e-04</internalNodes>
          <leafValues>
            2.7470225095748901e-01 -7.6000934839248657e-01</leafValues></_>
        <_>
          <internalNodes>
            0 -1 23 -1.6690749675035477e-02</internalNodes>
          <leafValues>
            -7.0394086837768555e-01 2.9648965597152710e-01</leafValues></_>
        <_>
          <internalNodes>
            0 -1 131 4.9631216097623110e-04</internalNodes>
          <leafValues>
            -5.9425747394561768e-01 3.3005005121231079e-01</leafValues></_>
        <_>
          <internalNodes>
            0 -1 118 1.2347279116511345e-03</internalNodes>
          <leafValues>
            -4.1707196831703186e-01 4.0754371881484985e-01</leafValues></_>
        <_>
          <internalNodes>
            0 -1 71 -1.6722667496651411e-03</internalNodes>
          <leafValues>
            2.9613831639289856e-01 -4.2869368195533752e-01</leafValues></_>
        <_>
          <internalNodes>
            0 -1 141 -3.6842186818830669e-04</internalNodes>
          <leafValues>
            2.1095372736454010e-01 -6.3600742816925049e-01</leafValues></_>
        <_>
          <internalNodes>
            0 -1 66 -4.9276080972049385e-05</internalNodes>
          <leafValues>
            2.7949458360671997e-01 -4.2422968149185181e-01</leafValues></_></weakClassifiers></_>
    <!-- stage 5 -->
    <_>
      <maxWeakCount>13</maxWeakCount>
      <stageThreshold>-1.4878545999526978e+00</stageThreshold>
      <weakClassifiers>
        <_>
          <internalNodes>
            0 -1 27 6.6785649396479130e-03</internalNodes>
          <leafValues>
            -5.3120464086532593e-01 7.2605884075164795e-01</leafValues></_>
        <_>
          <internalNodes>
            0 -1 135 -4.2394042015075684e-02</internalNodes>
          <leafValues>
            7.3323613405227661e-01 -3.4776166081428528e-01</leafValues></_>
        <_>
          <internalNodes>
            0 -1 48 -1.6540146898478270e-03</internalNodes>
          <leafValues>
            -5.9282696247100830e-01 3.5624229907989502e-01</leafValues></_>
        <_>
          <internalNodes>
            0 -1 72 3.0568744987249374e-03</internalNodes>
          <leafValues>
            -4.2929214239120483e-01 4.3061354756355286e-01</leafValues></_>
        <_>
          <internalNodes>
            0 -1 52 2.3986983578652143e-03</internalNodes>
          <leafValues>
            -9.4372385740280151e-01 1.7261974513530731e-01</leafValues></_>
        <_>
          <internalNodes>
            0 -1 122 2.2261994890868664e-03</internalNodes>
          <leafValues>
            2.7015468478202820e-01 -7.9136127233505249e-01</leafValues></_>
        <_>
          <internalNodes>
            0 -1 71 -4.8143928870558739e-03</internalNodes>
          <leafValues>
            4.8916923999786377e-01 -3.3654025197029114e-01</leafValues></_>
        <_>
          <internalNodes>
            0 -1 165 3.5361015761736780e-05</internalNodes>
          <leafValues>
            -5.2834826707839966e-01 2.5089880824089050e-01</leafValues></_>
        <_>
          <internalNodes>
            0 -1 164 1.6236093640327454e-01</internalNodes>
          <leafValues>
            -1.5734438598155975e-01 9.4211518764495850e-01</leafValues></_>
        <_>
          <internalNodes>
            0 -1 110 2.3838942870497704e-03</internalNodes>
          <leafValues>
            -3.3353516459465027e-01 3.6851072311401367e-01</leafValues></_>
        <_>
          <internalNodes>
            0 -1 35 6.6884234547615051e-03</internalNodes>
          <leafValues>
            -1.0874730348587036e+00 1.4761146903038025e-01</leafValues></_>
        <_>
          <internalNodes>
            0 -1 137 -2.7626904193311930e-04</internalNodes>
          <leafValues>
            1.8839342892169952e-01 -7.0994478464126587e-01</leafValues></_>
        <_>
          <internalNodes>
            0 -1 29 4.5778066851198673e-03</internalNodes>
          <leafValues>
            2.1097239851951599e-01 -5.2799499034881592e-01</leafValues></_></weakClassifiers></_>
    <!-- stage 6 -->
    <_>
      <maxWeakCount>13</maxWeakCount>
      <stageThreshold>-1.5154569149017334e+00</stageThreshold>
      <weakClassifiers>
        <_>
          <internalNodes>
            0 -1 179 1.2896435800939798e-03</internalNodes>
          <leafValues>
            -6.4079910516738892e-01 6.4579164981842041e-01</leafValues></_>
        <_>
          <internalNodes>
            0 -1 75 -1.4248562511056662e-03</internalNodes>
          <leafValues>
            4.1650158166885376e-01 -6.1783945560455322e-01</leafValues></_>
        <_>
          <internalNodes>
            0 -1 76 4.6556545421481133e-03</internalNodes>
          <leafValues>
            -8.6840051412582397e-01 2.8121909499168396e-01</leafValues></_>
        <_>
          <internalNodes>
            0 -1 25 2.1369646128732711e-04</internalNodes>
          <leafValues>
            -7.6310712099075317e-01 2.0816890895366669e-01</leafValues></_>
        <_>
          <internalNodes>
            0 -1 114 -1.1982101714238524e-03</internalNodes>
          <leafValues>
            3.7585496902465820e-01 -4.0843498706817627e-01</leafValues></_>
        <_>
          <internalNodes>
            0 -1 88 4.4181542471051216e-03</internalNodes>
          <leafValues>
            -3.4187847375869751e-01 3.9598053693771362e-01</leafValues></_>
        <_>
          <internalNodes>
            0 -1 151 -3.3865217119455338e-05</internalNodes>
          <leafValues>
            1.9512312114238739e-01 -7.2716999053955078e-01</leafValues></_>
        <_>
          <internalNodes>
            0 -1 115 -1.7650453373789787e-02</internalNodes>
          <leafValues>
            -7.8482991456985474e-01 1.4669977128505707e-01</leafValues></_>
        <_>
          <internalNodes>
            0 -1 104 -7.4106254614889622e-03</internalNodes>
          <leafValues>
            -5.9292858839035034e-01 2.2292453050613403e-01</leafValues></_>
        <_>
          <internalNodes>
            0 -1 139 -4.8373350873589516e-03</internalNodes>
          <leafValues>
            -9.7926825284957886e-01 1.5284475684165955e-01</leafValues></_>
        <_>
          <internalNodes>
            0 -1 169 -8.3471747348085046e-04</internalNodes>
          <leafValues>
            -7.9419606924057007e-01 1.5229071676731110e-01</leafValues></_>
        <_>
          <internalNodes>
            0 -1 149 1.2568896636366844e-03</internalNodes>
          <leafValues>
            -5.4906272888183594e-01 1.8825608491897583e-01</leafValues></_>
        <_>
          <internalNodes>
            0 -1 26 1.8127750605344772e-02</internalNodes>
          <leafValues>
            1.2554402649402618e-01 -8.3148837089538574e-01</leafValues></_></weakClassifiers></_>
    <!-- stage 7 -->
    <_>
      <maxWeakCount>14</maxWeakCount>
      <stageThreshold>-1.4506434202194214e+00</stageThreshold>
      <weakClassifiers>
        <_>
          <internalNodes>
            0 -1 4 8.6442865431308746e-03</internalNodes>
          <leafValues>
            -3.9016643166542053e-01 6.7494779825210571e-01</leafValues></_>
        <_>
          <internalNodes>
            0 -1 163 -1.0428223758935928e-02</internalNodes>
          <leafValues>
            4.9498772621154785e-01 -4.1810601949691772e-01</leafValues></_>
        <_>
          <internalNodes>
            0 -1 185 4.3237471254542470e-04</internalNodes>
          <leafValues>
            -7.3213255405426025e-01 2.4879537522792816e-01</leafValues></_>
        <_>
          <internalNodes>
            0 -1 143 -1.9506204989738762e-04</internalNodes>
          <leafValues>
            2.7394971251487732e-01 -6.9515603780746460e-01</leafValues></_>
        <_>
          <internalNodes>
            0 -1 172 -1.7939352255780250e-04</internalNodes>
          <leafValues>
            2.1582783758640289e-01 -6.1707264184951782e-01</leafValues></_>
        <_>
          <internalNodes>
            0 -1 64 -1.5303827822208405e-03</internalNodes>
          <leafValues>
            2.0922470092773438e-01 -7.0629554986953735e-01</leafValues></_>
        <_>
          <internalNodes>
            0 -1 48 -4.5683858916163445e-03</internalNodes>
          <leafValues>
            -7.2204381227493286e-01 2.0395417511463165e-01</leafValues></_>
        <_>
          <internalNodes>
            0 -1 93 -8.5028185276314616e-04</internalNodes>
          <leafValues>
            2.4480000138282776e-01 -6.1539638042449951e-01</leafValues></_>
        <_>
          <internalNodes>
            0 -1 87 -7.1345907635986805e-03</internalNodes>
          <leafValues>
            4.9972212314605713e-01 -3.0041223764419556e-01</leafValues></_>
        <_>
          <internalNodes>
            0 -1 11 -3.0393493361771107e-03</internalNodes>
          <leafValues>
            -5.8444273471832275e-01 2.3314246535301208e-01</leafValues></_>
        <_>
          <internalNodes>
            0 -1 176 1.3081482052803040e-01</internalNodes>
          <leafValues>
            -1.8678060173988342e-01 8.0905681848526001e-01</leafValues></_>
        <_>
          <internalNodes>
            0 -1 73 -2.0362469367682934e-03</internalNodes>
          <leafValues>
            5.6062710285186768e-01 -2.0632198452949524e-01</leafValues></_>
        <_>
          <internalNodes>
            0 -1 95 5.7448098232271150e-05</internalNodes>
          <leafValues>
            -7.9946810007095337e-01 1.3627071678638458e-01</leafValues></_>
        <_>
          <internalNodes>
            0 -1 113 -1.3422066112980247e-03</internalNodes>
          <leafValues>
            -1.0254987478256226e+00 1.2669707834720612e-01</leafValues></_></weakClassifiers></_>
    <!-- stage 8 -->
    <_>
      <maxWeakCount>17</maxWeakCount>
      <stageThreshold>-1.5714321136474609e+00</stageThreshold>
      <weakClassifiers>
        <_>
          <internalNodes>
            0 -1 1 2.1972045302391052e-02</internalNodes>
          <leafValues>
            -9.7438350319862366e-02 8.8139492273330688e-01</leafValues></_>
        <_>
          <internalNodes>
            0 -1 89 -9.7115952521562576e-03</internalNodes>
          <leafValues>
            5.3768789768218994e-01 -3.6121058464050293e-01</leafValues></_>
        <_>
          <internalNodes>
            0 -1 54 -8.7915081530809402e-03</internalNodes>
          <leafValues>
            2.1213530004024506e-01 -7.9615223407745361e-01</leafValues></_>
        <_>
          <internalNodes>
            0 -1 109 4.3599389027804136e-04</internalNodes>
          <leafValues>
            -5.0397330522537231e-01 2.8346747159957886e-01</leafValues></_>
        <_>
          <internalNodes>
            0 -1 102 3.7362671719165519e-05</internalNodes>
          <leafValues>
            -3.9249846339225769e-01 3.2571282982826233e-01</leafValues></_>
        <_>
          <internalNodes>
            0 -1 77 -2.9823670047335327e-04</internalNodes>
          <leafValues>
            -9.1150760650634766e-01 1.2821015715599060e-01</leafValues></_>
        <_>
          <internalNodes>
            0 -1 180 3.5169310285709798e-04</internalNodes>
          <leafValues>
            -6.9392651319503784e-01 1.8722967803478241e-01</leafValues></_>
        <_>
          <internalNodes>
            0 -1 3 -2.3237510025501251e-01</internalNodes>
          <leafValues>
            8.2194960117340088e-01 -1.4644664525985718e-01</leafValues></_>
        <_>
          <internalNodes>
            0 -1 100 4.9163715448230505e-04</internalNodes>
          <leafValues>
            -8.8020217418670654e-01 1.3264170289039612e-01</leafValues></_>
        <_>
          <internalNodes>
            0 -1 41 -1.5674141468480229e-04</internalNodes>
          <leafValues>
            1.8750625848770142e-01 -5.5324256420135498e-01</leafValues></_>
        <_>
          <internalNodes>
            0 -1 153 -4.6117254532873631e-03</internalNodes>
          <leafValues>
            -5.2795684337615967e-01 1.8449039757251740e-01</leafValues></_>
        <_>
          <internalNodes>
            0 -1 37 -6.5889144316315651e-03</internalNodes>
          <leafValues>
            -6.7144274711608887e-01 1.5143913030624390e-01</leafValues></_>
        <_>
          <internalNodes>
            0 -1 117 1.8000437412410975e-03</internalNodes>
          <leafValues>
            -2.7944511175155640e-01 3.5310208797454834e-01</leafValues></_>
        <_>
          <internalNodes>
            0 -1 159 -1.2409049086272717e-03</internalNodes>
          <leafValues>
            3.3036389946937561e-01 -2.8668850660324097e-01</leafValues></_>
        <_>
          <internalNodes>
            0 -1 136 -2.2652980405837297e-03</internalNodes>
          <leafValues>
            1.6279803216457367e-01 -5.6217670440673828e-01</leafValues></_>
        <_>
          <internalNodes>
            0 -1 123 -3.6367967259138823e-03</internalNodes>
          <leafValues>
            1.1366432905197144e-01 -1.0018084049224854e+00</leafValues></_>
        <_>
          <internalNodes>
            0 -1 20 2.9809096455574036e-01</internalNodes>
          <leafValues>
            -1.3514605164527893e-01 8.3010607957839966e-01</leafValues></_></weakClassifiers></_>
    <!-- stage 9 -->
    <_>
      <maxWeakCount>17</maxWeakCount>
      <stageThreshold>-1.5350244045257568e+00</stageThreshold>
      <weakClassifiers>
        <_>
          <internalNodes>
            0 -1 39 3.1335905194282532e-02</internalNodes>
          <leafValues>
            -2.5747251510620117e-01 6.5447688102722168e-01</leafValues></_>
        <_>
          <internalNodes>
            0 -1 12 -1.2451164424419403e-02</internalNodes>
          <leafValues>
            2.7362444996833801e-01 -6.0139369964599609e-01</leafValues></_>
        <_>
          <internalNodes>
            0 -1 65 -7.5520307291299105e-05</internalNodes>
          <leafValues>
            2.8341525793075562e-01 -5.4100418090820313e-01</leafValues></_>
        <_>
          <internalNodes>
            0 -1 142 -2.3328748648054898e-04</internalNodes>
          <leafValues>
            2.3018674552440643e-01 -7.0574980974197388e-01</leafValues></_>
        <_>
          <internalNodes>
            0 -1 105 -1.3000329490751028e-03</internalNodes>
          <leafValues>
            3.6619529128074646e-01 -3.4496188163757324e-01</leafValues></_>
        <_>
          <internalNodes>
            0 -1 84 -3.8385704101528972e-05</internalNodes>
          <leafValues>
            2.0875202119350433e-01 -5.8937060832977295e-01</leafValues></_>
        <_>
          <internalNodes>
            0 -1 55 -1.7350602429360151e-03</internalNodes>
          <leafValues>
            -9.6844476461410522e-01 1.3917888700962067e-01</leafValues></_>
        <_>
          <internalNodes>
            0 -1 158 -3.4954588045366108e-05</internalNodes>
          <leafValues>
            2.6055166125297546e-01 -4.4431960582733154e-01</leafValues></_>
        <_>
          <internalNodes>
            0 -1 10 -2.8040900360792875e-03</internalNodes>
          <leafValues>
            2.8239414095878601e-01 -3.4769195318222046e-01</leafValues></_>
        <_>
          <internalNodes>
            0 -1 124 5.1556341350078583e-03</internalNodes>
          <leafValues>
            1.2592497467994690e-01 -9.2257517576217651e-01</leafValues></_>
        <_>
          <internalNodes>
            0 -1 57 5.4411124438047409e-04</internalNodes>
          <leafValues>
            1.1995764821767807e-01 -8.1998246908187866e-01</leafValues></_>
        <_>
          <internalNodes>
            0 -1 57 -4.0824111783877015e-04</internalNodes>
          <leafValues>
            -7.9062533378601074e-01 1.8674714863300323e-01</leafValues></_>
        <_>
          <internalNodes>
            0 -1 31 1.5094703994691372e-02</internalNodes>
          <leafValues>
            1.1269135028123856e-01 -9.3276613950729370e-01</leafValues></_>
        <_>
          <internalNodes>
            0 -1 17 -5.9908498078584671e-03</internalNodes>
          <leafValues>
            -8.2450586557388306e-01 1.2524822354316711e-01</leafValues></_>
        <_>
          <internalNodes>
            0 -1 130 1.3179330853745341e-03</internalNodes>
          <leafValues>
            -2.8915616869926453e-01 3.1098854541778564e-01</leafValues></_>
        <_>
          <internalNodes>
            0 -1 182 -3.3305437682429329e-05</internalNodes>
          <leafValues>
            1.7507988214492798e-01 -4.6979275345802307e-01</leafValues></_>
        <_>
          <internalNodes>
            0 -1 107 2.0093962550163269e-02</internalNodes>
          <leafValues>
            1.0875464230775833e-01 -8.5675567388534546e-01</leafValues></_></weakClassifiers></_>
    <!-- stage 10 -->
    <_>
      <maxWeakCount>19</maxWeakCount>
      <stageThreshold>-1.4173728227615356e+00</stageThreshold>
      <weakClassifiers>
        <_>
          <internalNodes>
            0 -1 146 1.4959983527660370e-02</internalNodes>
          <leafValues>
            -1.9204977154731750e-01 7.1137011051177979e-01</leafValues></_>
        <_>
          <internalNodes>
            0 -1 161 -2.5624451227486134e-03</internalNodes>
          <leafValues>
            4.0023088455200195e-01 -3.9082309603691101e-01</leafValues></_>
        <_>
          <internalNodes>
            0 -1 71 -7.5780153274536133e-03</internalNodes>
          <leafValues>
            4.6150600910186768e-01 -3.0087083578109741e-01</leafValues></_>
        <_>
          <internalNodes>
            0 -1 67 -3.3345077099511400e-05</internalNodes>
          <leafValues>
            2.2080966830253601e-01 -6.0748594999313354e-01</leafValues></_>
        <_>
          <internalNodes>
            0 -1 82 -4.9990729894489050e-04</internalNodes>
          <leafValues>
            2.4823383986949921e-01 -5.1775723695755005e-01</leafValues></_>
        <_>
          <internalNodes>
            0 -1 83 -1.7441518139094114e-04</internalNodes>
          <leafValues>
            2.4508783221244812e-01 -4.1807222366333008e-01</leafValues></_>
        <_>
          <internalNodes>
            0 -1 186 -3.5197837860323489e-05</internalNodes>
          <leafValues>
            2.1165491640567780e-01 -5.1626771688461304e-01</leafValues></_>
        <_>
          <internalNodes>
            0 -1 62 -5.9967078268527985e-03</internalNodes>
          <leafValues>
            -6.0630458593368530e-01 1.8244746327400208e-01</leafValues></_>
        <_>
          <internalNodes>
            0 -1 97 -1.2062682770192623e-02</internalNodes>
          <leafValues>
            -1.0115866661071777e+00 1.3132399320602417e-01</leafValues></_>
        <_>
          <internalNodes>
            0 -1 166 -1.6535480972379446e-03</internalNodes>
          <leafValues>
            -6.8610346317291260e-01 1.2345935404300690e-01</leafValues></_>
        <_>
          <internalNodes>
            0 -1 132 -2.4829385802149773e-03</internalNodes>
          <leafValues>
            -9.1899496316909790e-01 1.0958558320999146e-01</leafValues></_>
        <_>
          <internalNodes>
            0 -1 14 4.9572461284697056e-03</internalNodes>
          <leafValues>
            1.2546651065349579e-01 -7.6790171861648560e-01</leafValues></_>
        <_>
          <internalNodes>
            0 -1 173 4.7076813643798232e-04</internalNodes>
          <leafValues>
            -3.0934953689575195e-01 2.7239447832107544e-01</leafValues></_>
        <_>
          <internalNodes>
            0 -1 116 2.5294601800851524e-04</internalNodes>
          <leafValues>
            -3.1248751282691956e-01 2.7861434221267700e-01</leafValues></_>
        <_>
          <internalNodes>
            0 -1 91 2.7683400548994541e-04</internalNodes>
          <leafValues>
            -6.7708569765090942e-01 1.2774415314197540e-01</leafValues></_>
        <_>
          <internalNodes>
            0 -1 80 1.8400312401354313e-03</internalNodes>
          <leafValues>
            -6.7310202121734619e-01 1.3618001341819763e-01</leafValues></_>
        <_>
          <internalNodes>
            0 -1 34 -4.2757677147164941e-04</internalNodes>
          <leafValues>
            2.7610561251640320e-01 -2.8387966752052307e-01</leafValues></_>
        <_>
          <internalNodes>
            0 -1 190 3.6852979101240635e-03</internalNodes>
          <leafValues>
            1.1884791404008865e-01 -8.0118989944458008e-01</leafValues></_>
        <_>
          <internalNodes>
            0 -1 33 5.5958610028028488e-03</internalNodes>
          <leafValues>
            1.3720075786113739e-01 -6.1451256275177002e-01</leafValues></_></weakClassifiers></_>
    <!-- stage 11 -->
    <_>
      <maxWeakCount>20</maxWeakCount>
      <stageThreshold>-1.3934153318405151e+00</stageThreshold>
      <weakClassifiers>
        <_>
          <internalNodes>
            0 -1 30 -1.6236954252235591e-04</internalNodes>
          <leafValues>
            5.6210190057754517e-01 -4.1132822632789612e-01</leafValues></_>
        <_>
          <internalNodes>
            0 -1 187 -4.2491689324378967e-02</internalNodes>
          <leafValues>
            6.4771407842636108e-01 -2.5331163406372070e-01</leafValues></_>
        <_>
          <internalNodes>
            0 -1 42 2.1243116352707148e-03</internalNodes>
          <leafValues>
            -3.5742881894111633e-01 3.8422712683677673e-01</leafValues></_>
        <_>
          <internalNodes>
            0 -1 94 -2.4596232105977833e-04</internalNodes>
          <leafValues>
            2.5965192914009094e-01 -4.9904239177703857e-01</leafValues></_>
        <_>
          <internalNodes>
            0 -1 49 3.3595675631659105e-05</internalNodes>
          <leafValues>
            -3.8572868704795837e-01 2.8945201635360718e-01</leafValues></_>
        <_>
          <internalNodes>
            0 -1 69 -3.0167767545208335e-04</internalNodes>
          <leafValues>
            2.4578471481800079e-01 -4.1637411713600159e-01</leafValues></_>
        <_>
          <internalNodes>
            0 -1 6 7.3154142592102289e-04</internalNodes>
          <leafValues>
            -7.4823015928268433e-01 1.4491234719753265e-01</leafValues></_>
        <_>
          <internalNodes>
            0 -1 154 -8.0066405644174665e-05</internalNodes>
          <leafValues>
            2.5681430101394653e-01 -3.5174953937530518e-01</leafValues></_>
        <_>
          <internalNodes>
            0 -1 53 -1.5893820673227310e-03</internalNodes>
          <leafValues>
            -9.2032539844512939e-01 1.3006351888179779e-01</leafValues></_>
        <_>
          <internalNodes>
            0 -1 9 -1.1790800094604492e-01</internalNodes>
          <leafValues>
            9.2993712425231934e-01 -1.1206391453742981e-01</leafValues></_>
        <_>
          <internalNodes>
            0 -1 103 -3.6190815735608339e-03</internalNodes>
          <leafValues>
            2.8996834158897400e-01 -3.0837628245353699e-01</leafValues></_>
        <_>
          <internalNodes>
            0 -1 119 -3.0583026818931103e-03</internalNodes>
          <leafValues>
            6.8244940042495728e-01 -1.6200613975524902e-01</leafValues></_>
        <_>
          <internalNodes>
            0 -1 120 -7.5696641579270363e-04</internalNodes>
          <leafValues>
            1.3994622230529785e-01 -6.6087687015533447e-01</leafValues></_>
        <_>
          <internalNodes>
            0 -1 156 -6.6557563841342926e-03</internalNodes>
          <leafValues>
            -7.9395192861557007e-01 1.1887083947658539e-01</leafValues></_>
        <_>
          <internalNodes>
            0 -1 96 -6.9456407800316811e-03</internalNodes>
          <leafValues>
            -9.1349065303802490e-01 1.0505460202693939e-01</leafValues></_>
        <_>
          <internalNodes>
            0 -1 162 5.6001241318881512e-04</internalNodes>
          <leafValues>
            1.1667352914810181e-01 -7.8470349311828613e-01</leafValues></_>
        <_>
          <internalNodes>
            0 -1 162 -3.6867178278043866e-04</internalNodes>
          <leafValues>
            -6.2450283765792847e-01 1.4173395931720734e-01</leafValues></_>
        <_>
          <internalNodes>
            0 -1 0 1.4383882284164429e-02</internalNodes>
          <leafValues>
            -2.0180901885032654e-01 3.7636256217956543e-01</leafValues></_>
        <_>
          <internalNodes>
            0 -1 15 2.8533053398132324e-01</internalNodes>
          <leafValues>
            -1.5024706721305847e-01 6.1219167709350586e-01</leafValues></_>
        <_>
          <internalNodes>
            0 -1 152 1.1570896953344345e-02</internalNodes>
          <leafValues>
            1.1576241254806519e-01 -7.9823458194732666e-01</leafValues></_></weakClassifiers></_>
    <!-- stage 12 -->
    <_>
      <maxWeakCount>21</maxWeakCount>
      <stageThreshold>-1.4484729766845703e+00</stageThreshold>
      <weakClassifiers>
        <_>
          <internalNodes>
            0 -1 108 1.1028507724404335e-03</internalNodes>
          <leafValues>
            -2.6506364345550537e-01 6.2461781501770020e-01</leafValues></_>
        <_>
          <internalNodes>
            0 -1 157 1.8843699945136905e-04</internalNodes>
          <leafValues>
            -3.8070884346961975e-01 4.1343775391578674e-01</leafValues></_>
        <_>
          <internalNodes>
            0 -1 1 4.2323715984821320e-02</internalNodes>
          <leafValues>
            -2.4306148290634155e-01 6.0458868741989136e-01</leafValues></_>
        <_>
          <internalNodes>
            0 -1 47 5.9327087365090847e-04</internalNodes>
          <leafValues>
            -7.7746021747589111e-01 1.5441840887069702e-01</leafValues></_>
        <_>
          <internalNodes>
            0 -1 165 3.1026563374325633e-04</internalNodes>
          <leafValues>
            -4.7468647360801697e-01 1.8269151449203491e-01</leafValues></_>
        <_>
          <internalNodes>
            0 -1 63 -1.1570458300411701e-03</internalNodes>
          <leafValues>
            -8.9288437366485596e-01 1.4883832633495331e-01</leafValues></_>
        <_>
          <internalNodes>
            0 -1 147 -1.8824918661266565e-03</internalNodes>
          <leafValues>
            -5.3546923398971558e-01 1.6582943499088287e-01</leafValues></_>
        <_>
          <internalNodes>
            0 -1 150 -5.2416726248338819e-05</internalNodes>
          <leafValues>
            1.4730198681354523e-01 -7.5718039274215698e-01</leafValues></_>
        <_>
          <internalNodes>
            0 -1 133 2.7571665123105049e-04</internalNodes>
          <leafValues>
            -3.3893638849258423e-01 2.5065946578979492e-01</leafValues></_>
        <_>
          <internalNodes>
            0 -1 155 2.0017470233142376e-03</internalNodes>
          <leafValues>
            1.3592277467250824e-01 -6.6509991884231567e-01</leafValues></_>
        <_>
          <internalNodes>
            0 -1 134 -5.3101768717169762e-03</internalNodes>
          <leafValues>
            1.6238753497600555e-01 -5.1672697067260742e-01</leafValues></_>
        <_>
          <internalNodes>
            0 -1 74 -5.4539768025279045e-03</internalNodes>
          <leafValues>
            2.7284446358680725e-01 -2.9048144817352295e-01</leafValues></_>
        <_>
          <internalNodes>
            0 -1 38 -9.0112872421741486e-03</internalNodes>
          <leafValues>
            -5.0013649463653564e-01 1.7459957301616669e-01</leafValues></_>
        <_>
          <internalNodes>
            0 -1 145 -7.3117166757583618e-03</internalNodes>
          <leafValues>
            -9.5376098155975342e-01 1.0573284327983856e-01</leafValues></_>
        <_>
          <internalNodes>
            0 -1 7 -3.4512777347117662e-03</internalNodes>
          <leafValues>
            -8.2891851663589478e-01 9.8467871546745300e-02</leafValues></_>
        <_>
          <internalNodes>
            0 -1 106 -8.1119616515934467e-04</internalNodes>
          <leafValues>
            -9.8551833629608154e-01 9.0169116854667664e-02</leafValues></_>
        <_>
          <internalNodes>
            0 -1 106 4.9593212315812707e-04</internalNodes>
          <leafValues>
            1.2076831609010696e-01 -6.5679323673248291e-01</leafValues></_>
        <_>
          <internalNodes>
            0 -1 177 6.4900331199169159e-04</internalNodes>
          <leafValues>
            -1.4824192225933075e-01 5.0834017992019653e-01</leafValues></_>
        <_>
          <internalNodes>
            0 -1 188 -2.8334497474133968e-03</internalNodes>
          <leafValues>
            -9.1814166307449341e-01 9.5374718308448792e-02</leafValues></_>
        <_>
          <internalNodes>
            0 -1 121 -2.5199018418788910e-02</internalNodes>
          <leafValues>
            -1.0222871303558350e+00 7.9445809125900269e-02</leafValues></_>
        <_>
          <internalNodes>
            0 -1 26 2.2905670106410980e-02</internalNodes>
          <leafValues>
            8.3720587193965912e-02 -9.6347504854202271e-01</leafValues></_></weakClassifiers></_>
    <!-- stage 13 -->
    <_>
      <maxWeakCount>23</maxWeakCount>
      <stageThreshold>-1.4043866395950317e+00</stageThreshold>
      <weakClassifiers>
        <_>
          <internalNodes>
            0 -1 148 -5.0616748631000519e-03</internalNodes>
          <leafValues>
            7.2675621509552002e-01 -1.1326628923416138e-01</leafValues></_>
        <_>
          <internalNodes>
            0 -1 183 -2.9177789110690355e-04</internalNodes>
          <leafValues>
            3.7304627895355225e-01 -3.7021005153656006e-01</leafValues></_>
        <_>
          <internalNodes>
            0 -1 111 -2.8358059935271740e-03</internalNodes>
          <leafValues>
            3.1330204010009766e-01 -4.0498200058937073e-01</leafValues></_>
        <_>
          <internalNodes>
            0 -1 170 -8.8351574959233403e-05</internalNodes>
          <leafValues>
            1.9924674928188324e-01 -5.2715176343917847e-01</leafValues></_>
        <_>
          <internalNodes>
            0 -1 51 -1.5584920533001423e-02</internalNodes>
          <leafValues>
            -7.0420044660568237e-01 1.7710348963737488e-01</leafValues></_>
        <_>
          <internalNodes>
            0 -1 140 -5.4159416322363541e-05</internalNodes>
          <leafValues>
            1.5283162891864777e-01 -7.2774124145507813e-01</leafValues></_>
        <_>
          <internalNodes>
            0 -1 86 -2.2862662444822490e-04</internalNodes>
          <leafValues>
            2.5212723016738892e-01 -4.0090990066528320e-01</leafValues></_>
        <_>
          <internalNodes>
            0 -1 46 -2.3280929774045944e-02</internalNodes>
          <leafValues>
            -6.4049470424652100e-01 1.2604756653308868e-01</leafValues></_>
        <_>
          <internalNodes>
            0 -1 144 5.8023084420710802e-04</internalNodes>
          <leafValues>
            -3.3360615372657776e-01 2.5352931022644043e-01</leafValues></_>
        <_>
          <internalNodes>
            0 -1 32 5.6548267602920532e-03</internalNodes>
          <leafValues>
            -2.3313082754611969e-01 3.3932712674140930e-01</leafValues></_>
        <_>
          <internalNodes>
            0 -1 18 2.4062725715339184e-03</internalNodes>
          <leafValues>
            1.0116551071405411e-01 -7.8910517692565918e-01</leafValues></_>
        <_>
          <internalNodes>
            0 -1 90 5.5715005146339536e-04</internalNodes>
          <leafValues>
            1.0849497467279434e-01 -7.9790467023849487e-01</leafValues></_>
        <_>
          <internalNodes>
            0 -1 90 -5.1478156819939613e-04</internalNodes>
          <leafValues>
            -7.5128304958343506e-01 1.1569645255804062e-01</leafValues></_>
        <_>
          <internalNodes>
            0 -1 131 -9.9039333872497082e-04</internalNodes>
          <leafValues>
            -5.0084334611892700e-01 1.5917636454105377e-01</leafValues></_>
        <_>
          <internalNodes>
            0 -1 2 -4.6554981963708997e-04</internalNodes>
          <leafValues>
            1.3453692197799683e-01 -5.3272539377212524e-01</leafValues></_>
        <_>
          <internalNodes>
            0 -1 171 1.4072549529373646e-03</internalNodes>
          <leafValues>
            1.0133422911167145e-01 -8.4529203176498413e-01</leafValues></_>
        <_>
          <internalNodes>
            0 -1 68 6.0970123857259750e-02</internalNodes>
          <leafValues>
            9.0221412479877472e-02 -8.7317049503326416e-01</leafValues></_>
        <_>
          <internalNodes>
            0 -1 19 6.3368780538439751e-03</internalNodes>
          <leafValues>
            1.0367889702320099e-01 -8.1166601181030273e-01</leafValues></_>
        <_>
          <internalNodes>
            0 -1 56 -3.3228477695956826e-04</internalNodes>
          <leafValues>
            2.1638272702693939e-01 -3.2425567507743835e-01</leafValues></_>
        <_>
          <internalNodes>
            0 -1 98 -4.6657390892505646e-02</internalNodes>
          <leafValues>
            5.6397998332977295e-01 -1.4672511816024780e-01</leafValues></_>
        <_>
          <internalNodes>
            0 -1 174 -4.0881923632696271e-04</internalNodes>
          <leafValues>
            2.6751151680946350e-01 -2.5568538904190063e-01</leafValues></_>
        <_>
          <internalNodes>
            0 -1 101 1.6193939372897148e-03</internalNodes>
          <leafValues>
            1.8441790342330933e-01 -3.6434990167617798e-01</leafValues></_>
        <_>
          <internalNodes>
            0 -1 127 4.7426884993910789e-03</internalNodes>
          <leafValues>
            -1.2384274601936340e-01 5.8385646343231201e-01</leafValues></_></weakClassifiers></_>
    <!-- stage 14 -->
    <_>
      <maxWeakCount>23</maxWeakCount>
      <stageThreshold>-1.3798158168792725e+00</stageThreshold>
      <weakClassifiers>
        <_>
          <internalNodes>
            0 -1 184 -2.4062246084213257e-03</internalNodes>
          <leafValues>
            6.3735324144363403e-01 -2.4496255815029144e-01</leafValues></_>
        <_>
          <internalNodes>
            0 -1 45 -7.9508293420076370e-03</internalNodes>
          <leafValues>
            4.0225365757942200e-01 -3.7998843193054199e-01</leafValues></_>
        <_>
          <internalNodes>
            0 -1 43 1.4004989061504602e-03</internalNodes>
          <leafValues>
            -3.5210046172142029e-01 3.8207429647445679e-01</leafValues></_>
        <_>
          <internalNodes>
            0 -1 10 -5.5242199450731277e-03</internalNodes>
          <leafValues>
            4.0580201148986816e-01 -2.9121592640876770e-01</leafValues></_>
        <_>
          <internalNodes>
            0 -1 129 1.5504113398492336e-03</internalNodes>
          <leafValues>
            -4.7117078304290771e-01 1.9742949306964874e-01</leafValues></_>
        <_>
          <internalNodes>
            0 -1 168 3.3398920204490423e-03</internalNodes>
          <leafValues>
            1.2271630018949509e-01 -8.5792142152786255e-01</leafValues></_>
        <_>
          <internalNodes>
            0 -1 138 3.9001521654427052e-03</internalNodes>
          <leafValues>
            1.4116574823856354e-01 -7.0493942499160767e-01</leafValues></_>
        <_>
          <internalNodes>
            0 -1 112 -1.3373035471886396e-03</internalNodes>
          <leafValues>
            -7.6167231798171997e-01 1.2729811668395996e-01</leafValues></_>
        <_>
          <internalNodes>
            0 -1 21 9.0920203365385532e-04</internalNodes>
          <leafValues>
            -7.1054613590240479e-01 1.4179246127605438e-01</leafValues></_>
        <_>
          <internalNodes>
            0 -1 160 2.0036073692608625e-04</internalNodes>
          <leafValues>
            -2.7297553420066833e-01 3.2848802208900452e-01</leafValues></_>
        <_>
          <internalNodes>
            0 -1 28 5.0679133273661137e-03</internalNodes>
          <leafValues>
            1.0996416211128235e-01 -6.5758943557739258e-01</leafValues></_>
        <_>
          <internalNodes>
            0 -1 44 -4.8389476723968983e-03</internalNodes>
          <leafValues>
            -9.3599653244018555e-01 1.1231824755668640e-01</leafValues></_>
        <_>
          <internalNodes>
            0 -1 189 -7.0636603049933910e-04</internalNodes>
          <leafValues>
            -6.5448200702667236e-01 1.2667027115821838e-01</leafValues></_>
        <_>
          <internalNodes>
            0 -1 167 -1.9280440174043179e-03</internalNodes>
          <leafValues>
            -6.0378539562225342e-01 1.2980355322360992e-01</leafValues></_>
        <_>
          <internalNodes>
            0 -1 85 -2.3782748030498624e-04</internalNodes>
          <leafValues>
            -5.0816351175308228e-01 1.4467085897922516e-01</leafValues></_>
        <_>
          <internalNodes>
            0 -1 99 1.1914049973711371e-03</internalNodes>
          <leafValues>
            -6.0654670000076294e-01 1.2378830462694168e-01</leafValues></_>
        <_>
          <internalNodes>
            0 -1 5 8.0233495682477951e-03</internalNodes>
          <leafValues>
            1.2263371795415878e-01 -6.6952890157699585e-01</leafValues></_>
        <_>
          <internalNodes>
            0 -1 78 3.4824333852156997e-05</internalNodes>
          <leafValues>
            -4.3294602632522583e-01 1.7282824218273163e-01</leafValues></_>
        <_>
          <internalNodes>
            0 -1 175 -2.9548052698373795e-03</internalNodes>
          <leafValues>
            -6.9274610280990601e-01 1.0859128087759018e-01</leafValues></_>
        <_>
          <internalNodes>
            0 -1 81 2.7398357633501291e-04</internalNodes>
          <leafValues>
            -2.3961997032165527e-01 2.7889356017112732e-01</leafValues></_>
        <_>
          <internalNodes>
            0 -1 70 1.0182139230892062e-03</internalNodes>
          <leafValues>
            -2.1583819389343262e-01 3.1516340374946594e-01</leafValues></_>
        <_>
          <internalNodes>
            0 -1 50 1.2874915264546871e-03</internalNodes>
          <leafValues>
            -8.6859637498855591e-01 9.4687819480895996e-02</leafValues></_>
        <_>
          <internalNodes>
            0 -1 8 -7.1477040648460388e-02</internalNodes>
          <leafValues>
            8.1179994344711304e-01 -1.1106277257204056e-01</leafValues></_></weakClassifiers></_></stages>
  <features>
    <_>
      <rects>
        <_>
          0 0 10 2 -1.</_>
        <_>
          5 0 5 2 2.</_></rects>
      <tilted>0</tilted></_>
    <_>
      <rects>
        <_>
          0 0 10 4 -1.</_>
        <_>
          5 0 5 4 2.</_></rects>
      <tilted>0</tilted></_>
    <_>
      <rects>
        <_>
          0 1 12 6 -1.</_>
        <_>
          0 1 6 3 2.</_>
        <_>
          6 4 6 3 2.</_></rects>
      <tilted>0</tilted></_>
    <_>
      <rects>
        <_>
          0 1 18 23 -1.</_>
        <_>
          9 1 9 23 2.</_></rects>
      <tilted>0</tilted></_>
    <_>
      <rects>
        <_>
          0 6 8 6 -1.</_>
        <_>
          0 6 4 3 2.</_>
        <_>
          4 9 4 3 2.</_></rects>
      <tilted>0</tilted></_>
    <_>
      <rects>
        <_>
          0 7 3 4 -1.</_>
        <_>
          0 9 3 2 2.</_></rects>
      <tilted>0</tilted></_>
    <_>
      <rects>
        <_>
          0 7 13 2 -1.</_>
        <_>
          0 8 13 1 2.</_></rects>
      <tilted>0</tilted></_>
    <_>
      <rects>
        <_>
          0 9 12 2 -1.</_>
        <_>
          0 9 6 1 2.</_>
        <_>
          6 10 6 1 2.</_></rects>
      <tilted>0</tilted></_>
    <_>
      <rects>
        <_>
          0 11 8 11 -1.</_>
        <_>
          4 11 4 11 2.</_></rects>
      <tilted>0</tilted></_>
    <_>
      <rects>
        <_>
          0 12 10 12 -1.</_>
        <_>
          5 12 5 12 2.</_></rects>
      <tilted>0</tilted></_>
    <_>
      <rects>
        <_>
          0 15 14 2 -1.</_>
        <_>
          0 15 7 1 2.</_>
        <_>
          7 16 7 1 2.</_></rects>
      <tilted>0</tilted></_>
    <_>
      <rects>
        <_>
          1 0 3 14 -1.</_>
        <_>
          1 7 3 7 2.</_></rects>
      <tilted>0</tilted></_>
    <_>
      <rects>
        <_>
          1 0 10 8 -1.</_>
        <_>
          1 0 5 4 2.</_>
        <_>
          6 4 5 4 2.</_></rects>
      <tilted>0</tilted></_>
    <_>
      <rects>
        <_>
          1 1 10 6 -1.</_>
        <_>
          1 1 5 3 2.</_>
        <_>
          6 4 5 3 2.</_></rects>
      <tilted>0</tilted></_>
    <_>
      <rects>
        <_>
          2 0 20 2 -1.</_>
        <_>
          2 0 10 1 2.</_>
        <_>
          12 1 10 1 2.</_></rects>
      <tilted>0</tilted></_>
    <_>
      <rects>
        <_>
          2 1 22 23 -1.</_>
        <_>
          13 1 11 23 2.</_></rects>
      <tilted>0</tilted></_>
    <_>
      <rects>
        <_>
          2 6 19 4 -1.</_>
        <_>
          2 8 19 2 2.</_></rects>
      <tilted>0</tilted></_>
    <_>
      <rects>
        <_>
          2 13 20 2 -1.</_>
        <_>
          2 13 10 1 2.</_>
        <_>
          12 14 10 1 2.</_></rects>
      <tilted>0</tilted></_>
    <_>
      <rects>
        <_>
          2 14 8 2 -1.</_>
        <_>
          2 15 8 1 2.</_></rects>
      <tilted>0</tilted></_>
    <_>
      <rects>
        <_>
          2 14 20 2 -1.</_>
        <_>
          2 14 10 1 2.</_>
        <_>
          12 15 10 1 2.</_></rects>
      <tilted>0</tilted></_>
    <_>
      <rects>
        <_>
          3 1 20 23 -1.</_>
        <_>
          13 1 10 23 2.</_></rects>
      <tilted>0</tilted></_>
    <_>
      <rects>
        <_>
          3 8 8 2 -1.</_>
        <_>
          3 9 8 1 2.</_></rects>
      <tilted>0</tilted></_>
    <_>
      <rects>
        <_>
          4 5 10 8 -1.</_>
        <_>
          4 9 10 4 2.</_></rects>
      <tilted>0</tilted></_>
    <_>
      <rects>
        <_>
          4 6 15 2 -1.</_>
        <_>
          9 6 5 2 2.</_></rects>
      <tilted>0</tilted></_>
    <_>
      <rects>
        <_>
          4 6 15 6 -1.</_>
        <_>
          4 9 15 3 2.</_></rects>
      <tilted>0</tilted></_>
    <_>
      <rects>
        <_>
          4 7 2 2 -1.</_>
        <_>
          4 8 2 1 2.</_></rects>
      <tilted>0</tilted></_>
    <_>
      <rects>
        <_>
          4 7 14 8 -1.</_>
        <_>
          4 7 7 4 2.</_>
        <_>
          11 11 7 4 2.</_></rects>
      <tilted>0</tilted></_>
    <_>
      <rects>
        <_>
          4 7 16 2 -1.</_>
        <_>
          4 8 16 1 2.</_></rects>
      <tilted>0</tilted></_>
    <_>
      <rects>
        <_>
          4 9 6 2 -1.</_>
        <_>
          7 9 3 2 2.</_></rects>
      <tilted>0</tilted></_>
    <_>
      <rects>
        <_>
          4 9 6 4 -1.</_>
        <_>
          7 9 3 4 2.</_></rects>
      <tilted>0</tilted></_>
    <_>
      <rects>
        <_>
          4 12 4 2 -1.</_>
        <_>
          4 13 4 1 2.</_></rects>
      <tilted>0</tilted></_>
    <_>
      <rects>
        <_>
          4 12 16 4 -1.</_>
        <_>
          4 12 8 2 2.</_>
        <_>
          12 14 8 2 2.</_></rects>
      <tilted>0</tilted></_>
    <_>
      <rects>
        <_>
          4 18 10 4 -1.</_>
        <_>
          4 18 5 2 2.</_>
        <_>
          9 20 5 2 2.</_></rects>
      <tilted>0</tilted></_>
    <_>
      <rects>
        <_>
          5 2 4 10 -1.</_>
        <_>
          5 2 2 5 2.</_>
        <_>
          7 7 2 5 2.</_></rects>
      <tilted>0</tilted></_>
    <_>
      <rects>
        <_>
          5 5 2 2 -1.</_>
        <_>
          5 6 2 1 2.</_></rects>
      <tilted>0</tilted></_>
    <_>
      <rects>
        <_>
          5 5 7 8 -1.</_>
        <_>
          5 9 7 4 2.</_></rects>
      <tilted>0</tilted></_>
    <_>
      <rects>
        <_>
          5 6 3 6 -1.</_>
        <_>
          5 9 3 3 2.</_></rects>
      <tilted>0</tilted></_>
    <_>
      <rects>
        <_>
          5 6 12 1 -1.</_>
        <_>
          9 6 4 1 2.</_></rects>
      <tilted>0</tilted></_>
    <_>
      <rects>
        <_>
          5 6 12 2 -1.</_>
        <_>
          9 6 4 2 2.</_></rects>
      <tilted>0</tilted></_>
    <_>
      <rects>
        <_>
          5 6 15 4 -1.</_>
        <_>
          5 8 15 2 2.</_></rects>
      <tilted>0</tilted></_>
    <_>
      <rects>
        <_>
          5 6 15 6 -1.</_>
        <_>
          5 9 15 3 2.</_></rects>
      <tilted>0</tilted></_>
    <_>
      <rects>
        <_>
          5 12 2 4 -1.</_>
        <_>
          5 14 2 2 2.</_></rects>
      <tilted>0</tilted></_>
    <_>
      <rects>
        <_>
          5 16 4 4 -1.</_>
        <_>
          5 16 2 2 2.</_>
        <_>
          7 18 2 2 2.</_></rects>
      <tilted>0</tilted></_>
    <_>
      <rects>
        <_>
          5 21 6 1 -1.</_>
        <_>
          8 21 3 1 2.</_></rects>
      <tilted>0</tilted></_>
    <_>
      <rects>
        <_>
          6 2 2 10 -1.</_>
        <_>
          6 2 1 5 2.</_>
        <_>
          7 7 1 5 2.</_></rects>
      <tilted>0</tilted></_>
    <_>
      <rects>
        <_>
          6 3 11 2 -1.</_>
        <_>
          6 4 11 1 2.</_></rects>
      <tilted>0</tilted></_>
    <_>
      <rects>
        <_>
          6 4 12 4 -1.</_>
        <_>
          10 4 4 4 2.</_></rects>
      <tilted>0</tilted></_>
    <_>
      <rects>
        <_>
          6 6 1 4 -1.</_>
        <_>
          6 8 1 2 2.</_></rects>
      <tilted>0</tilted></_>
    <_>
      <rects>
        <_>
          6 6 12 1 -1.</_>
        <_>
          10 6 4 1 2.</_></rects>
      <tilted>0</tilted></_>
    <_>
      <rects>
        <_>
          6 6 12 2 -1.</_>
        <_>
          10 6 4 2 2.</_></rects>
      <tilted>0</tilted></_>
    <_>
      <rects>
        <_>
          6 6 5 8 -1.</_>
        <_>
          6 10 5 4 2.</_></rects>
      <tilted>0</tilted></_>
    <_>
      <rects>
        <_>
          6 7 12 10 -1.</_>
        <_>
          6 7 6 5 2.</_>
        <_>
          12 12 6 5 2.</_></rects>
      <tilted>0</tilted></_>
    <_>
      <rects>
        <_>
          6 8 12 4 -1.</_>
        <_>
          6 10 12 2 2.</_></rects>
      <tilted>0</tilted></_>
    <_>
      <rects>
        <_>
          6 9 2 2 -1.</_>
        <_>
          7 9 1 2 2.</_></rects>
      <tilted>0</tilted></_>
    <_>
      <rects>
        <_>
          6 9 7 8 -1.</_>
        <_>
          6 13 7 4 2.</_></rects>
      <tilted>0</tilted></_>
    <_>
      <rects>
        <_>
          6 9 8 2 -1.</_>
        <_>
          6 10 8 1 2.</_></rects>
      <tilted>0</tilted></_>
    <_>
      <rects>
        <_>
          6 10 4 2 -1.</_>
        <_>
          8 10 2 2 2.</_></rects>
      <tilted>0</tilted></_>
    <_>
      <rects>
        <_>
          7 0 2 2 -1.</_>
        <_>
          7 0 1 1 2.</_>
        <_>
          8 1 1 1 2.</_></rects>
      <tilted>0</tilted></_>
    <_>
      <rects>
        <_>
          7 1 9 8 -1.</_>
        <_>
          7 5 9 4 2.</_></rects>
      <tilted>0</tilted></_>
    <_>
      <rects>
        <_>
          7 4 6 5 -1.</_>
        <_>
          10 4 3 5 2.</_></rects>
      <tilted>0</tilted></_>
    <_>
      <rects>
        <_>
          7 6 9 1 -1.</_>
        <_>
          10 6 3 1 2.</_></rects>
      <tilted>0</tilted></_>
    <_>
      <rects>
        <_>
          7 6 9 2 -1.</_>
        <_>
          10 6 3 2 2.</_></rects>
      <tilted>0</tilted></_>
    <_>
      <rects>
        <_>
          7 6 12 1 -1.</_>
        <_>
          11 6 4 1 2.</_></rects>
      <tilted>0</tilted></_>
    <_>
      <rects>
        <_>
          7 8 2 2 -1.</_>
        <_>
          8 8 1 2 2.</_></rects>
      <tilted>0</tilted></_>
    <_>
      <rects>
        <_>
          7 10 9 4 -1.</_>
        <_>
          7 12 9 2 2.</_></rects>
      <tilted>0</tilted></_>
    <_>
      <rects>
        <_>
          7 11 2 1 -1.</_>
        <_>
          8 11 1 1 2.</_></rects>
      <tilted>0</tilted></_>
    <_>
      <rects>
        <_>
          7 11 2 2 -1.</_>
        <_>
          8 11 1 2 2.</_></rects>
      <tilted>0</tilted></_>
    <_>
      <rects>
        <_>
          7 11 2 2 -1.</_>
        <_>
          7 12 2 1 2.</_></rects>
      <tilted>0</tilted></_>
    <_>
      <rects>
        <_>
          7 11 9 12 -1.</_>
        <_>
          7 17 9 6 2.</_></rects>
      <tilted>0</tilted></_>
    <_>
      <rects>
        <_>
          7 13 4 1 -1.</_>
        <_>
          9 13 2 1 2.</_></rects>
      <tilted>0</tilted></_>
    <_>
      <rects>
        <_>
          7 13 8 2 -1.</_>
        <_>
          7 14 8 1 2.</_></rects>
      <tilted>0</tilted></_>
    <_>
      <rects>
        <_>
          7 15 9 2 -1.</_>
        <_>
          7 16 9 1 2.</_></rects>
      <tilted>0</tilted></_>
    <_>
      <rects>
        <_>
          7 16 10 2 -1.</_>
        <_>
          7 17 10 1 2.</_></rects>
      <tilted>0</tilted></_>
    <_>
      <rects>
        <_>
          7 17 6 2 -1.</_>
        <_>
          7 17 3 1 2.</_>
        <_>
          10 18 3 1 2.</_></rects>
      <tilted>0</tilted></_>
    <_>
      <rects>
        <_>
          7 20 11 4 -1.</_>
        <_>
          7 22 11 2 2.</_></rects>
      <tilted>0</tilted></_>
    <_>
      <rects>
        <_>
          8 2 1 4 -1.</_>
        <_>
          8 4 1 2 2.</_></rects>
      <tilted>0</tilted></_>
    <_>
      <rects>
        <_>
          8 2 4 7 -1.</_>
        <_>
          10 2 2 7 2.</_></rects>
      <tilted>0</tilted></_>
    <_>
      <rects>
        <_>
          8 3 2 3 -1.</_>
        <_>
          9 3 1 3 2.</_></rects>
      <tilted>0</tilted></_>
    <_>
      <rects>
        <_>
          8 4 2 1 -1.</_>
        <_>
          9 4 1 1 2.</_></rects>
      <tilted>0</tilted></_>
    <_>
      <rects>
        <_>
          8 5 8 12 -1.</_>
        <_>
          8 11 8 6 2.</_></rects>
      <tilted>0</tilted></_>
    <_>
      <rects>
        <_>
          8 8 15 2 -1.</_>
        <_>
          8 9 15 1 2.</_></rects>
      <tilted>0</tilted></_>
    <_>
      <rects>
        <_>
          8 10 4 2 -1.</_>
        <_>
          8 10 2 1 2.</_>
        <_>
          10 11 2 1 2.</_></rects>
      <tilted>0</tilted></_>
    <_>
      <rects>
        <_>
          8 11 4 4 -1.</_>
        <_>
          8 11 2 2 2.</_>
        <_>
          10 13 2 2 2.</_></rects>
      <tilted>0</tilted></_>
    <_>
      <rects>
        <_>
          8 13 2 1 -1.</_>
        <_>
          9 13 1 1 2.</_></rects>
      <tilted>0</tilted></_>
    <_>
      <rects>
        <_>
          8 13 1 4 -1.</_>
        <_>
          8 15 1 2 2.</_></rects>
      <tilted>0</tilted></_>
    <_>
      <rects>
        <_>
          8 14 2 2 -1.</_>
        <_>
          8 14 1 1 2.</_>
        <_>
          9 15 1 1 2.</_></rects>
      <tilted>0</tilted></_>
    <_>
      <rects>
        <_>
          8 15 1 2 -1.</_>
        <_>
          8 16 1 1 2.</_></rects>
      <tilted>0</tilted></_>
    <_>
      <rects>
        <_>
          8 15 8 2 -1.</_>
        <_>
          8 16 8 1 2.</_></rects>
      <tilted>0</tilted></_>
    <_>
      <rects>
        <_>
          8 15 16 2 -1.</_>
        <_>
          8 15 8 1 2.</_>
        <_>
          16 16 8 1 2.</_></rects>
      <tilted>0</tilted></_>
    <_>
      <rects>
        <_>
          8 20 9 4 -1.</_>
        <_>
          8 22 9 2 2.</_></rects>
      <tilted>0</tilted></_>
    <_>
      <rects>
        <_>
          9 0 2 2 -1.</_>
        <_>
          9 0 1 1 2.</_>
        <_>
          10 1 1 1 2.</_></rects>
      <tilted>0</tilted></_>
    <_>
      <rects>
        <_>
          9 0 2 8 -1.</_>
        <_>
          10 0 1 8 2.</_></rects>
      <tilted>0</tilted></_>
    <_>
      <rects>
        <_>
          9 2 1 4 -1.</_>
        <_>
          9 4 1 2 2.</_></rects>
      <tilted>0</tilted></_>
    <_>
      <rects>
        <_>
          9 2 1 6 -1.</_>
        <_>
          9 5 1 3 2.</_></rects>
      <tilted>0</tilted></_>
    <_>
      <rects>
        <_>
          9 3 1 2 -1.</_>
        <_>
          9 4 1 1 2.</_></rects>
      <tilted>0</tilted></_>
    <_>
      <rects>
        <_>
          9 4 2 2 -1.</_>
        <_>
          10 4 1 2 2.</_></rects>
      <tilted>0</tilted></_>
    <_>
      <rects>
        <_>
          9 5 9 10 -1.</_>
        <_>
          9 10 9 5 2.</_></rects>
      <tilted>0</tilted></_>
    <_>
      <rects>
        <_>
          9 6 6 10 -1.</_>
        <_>
          9 6 3 5 2.</_>
        <_>
          12 11 3 5 2.</_></rects>
      <tilted>0</tilted></_>
    <_>
      <rects>
        <_>
          9 6 6 17 -1.</_>
        <_>
          12 6 3 17 2.</_></rects>
      <tilted>0</tilted></_>
    <_>
      <rects>
        <_>
          9 7 8 2 -1.</_>
        <_>
          9 8 8 1 2.</_></rects>
      <tilted>0</tilted></_>
    <_>
      <rects>
        <_>
          9 7 11 2 -1.</_>
        <_>
          9 8 11 1 2.</_></rects>
      <tilted>0</tilted></_>
    <_>
      <rects>
        <_>
          9 10 10 2 -1.</_>
        <_>
          9 10 5 1 2.</_>
        <_>
          14 11 5 1 2.</_></rects>
      <tilted>0</tilted></_>
    <_>
      <rects>
        <_>
          9 13 1 2 -1.</_>
        <_>
          9 14 1 1 2.</_></rects>
      <tilted>0</tilted></_>
    <_>
      <rects>
        <_>
          9 15 7 2 -1.</_>
        <_>
          9 16 7 1 2.</_></rects>
      <tilted>0</tilted></_>
    <_>
      <rects>
        <_>
          9 17 6 1 -1.</_>
        <_>
          11 17 2 1 2.</_></rects>
      <tilted>0</tilted></_>
    <_>
      <rects>
        <_>
          9 22 5 2 -1.</_>
        <_>
          9 23 5 1 2.</_></rects>
      <tilted>0</tilted></_>
    <_>
      <rects>
        <_>
          10 0 2 2 -1.</_>
        <_>
          10 0 1 1 2.</_>
        <_>
          11 1 1 1 2.</_></rects>
      <tilted>0</tilted></_>
    <_>
      <rects>
        <_>
          10 0 4 20 -1.</_>
        <_>
          10 0 2 10 2.</_>
        <_>
          12 10 2 10 2.</_></rects>
      <tilted>0</tilted></_>
    <_>
      <rects>
        <_>
          10 6 2 2 -1.</_>
        <_>
          11 6 1 2 2.</_></rects>
      <tilted>0</tilted></_>
    <_>
      <rects>
        <_>
          10 7 2 1 -1.</_>
        <_>
          11 7 1 1 2.</_></rects>
      <tilted>0</tilted></_>
    <_>
      <rects>
        <_>
          10 7 2 6 -1.</_>
        <_>
          11 7 1 6 2.</_></rects>
      <tilted>0</tilted></_>
    <_>
      <rects>
        <_>
          10 7 2 14 -1.</_>
        <_>
          10 7 1 7 2.</_>
        <_>
          11 14 1 7 2.</_></rects>
      <tilted>0</tilted></_>
    <_>
      <rects>
        <_>
          10 8 4 2 -1.</_>
        <_>
          10 8 2 1 2.</_>
        <_>
          12 9 2 1 2.</_></rects>
      <tilted>0</tilted></_>
    <_>
      <rects>
        <_>
          10 8 3 2 -1.</_>
        <_>
          10 9 3 1 2.</_></rects>
      <tilted>0</tilted></_>
    <_>
      <rects>
        <_>
          10 12 3 2 -1.</_>
        <_>
          10 13 3 1 2.</_></rects>
      <tilted>0</tilted></_>
    <_>
      <rects>
        <_>
          10 12 5 10 -1.</_>
        <_>
          10 17 5 5 2.</_></rects>
      <tilted>0</tilted></_>
    <_>
      <rects>
        <_>
          10 16 1 2 -1.</_>
        <_>
          10 17 1 1 2.</_></rects>
      <tilted>0</tilted></_>
    <_>
      <rects>
        <_>
          10 16 3 2 -1.</_>
        <_>
          10 17 3 1 2.</_></rects>
      <tilted>0</tilted></_>
    <_>
      <rects>
        <_>
          10 16 4 2 -1.</_>
        <_>
          10 17 4 1 2.</_></rects>
      <tilted>0</tilted></_>
    <_>
      <rects>
        <_>
          10 17 3 2 -1.</_>
        <_>
          10 18 3 1 2.</_></rects>
      <tilted>0</tilted></_>
    <_>
      <rects>
        <_>
          11 0 4 8 -1.</_>
        <_>
          11 0 2 4 2.</_>
        <_>
          13 4 2 4 2.</_></rects>
      <tilted>0</tilted></_>
    <_>
      <rects>
        <_>
          11 2 9 12 -1.</_>
        <_>
          11 8 9 6 2.</_></rects>
      <tilted>0</tilted></_>
    <_>
      <rects>
        <_>
          11 3 1 14 -1.</_>
        <_>
          11 10 1 7 2.</_></rects>
      <tilted>0</tilted></_>
    <_>
      <rects>
        <_>
          11 3 6 6 -1.</_>
        <_>
          14 3 3 6 2.</_></rects>
      <tilted>0</tilted></_>
    <_>
      <rects>
        <_>
          11 4 1 12 -1.</_>
        <_>
          11 10 1 6 2.</_></rects>
      <tilted>0</tilted></_>
    <_>
      <rects>
        <_>
          11 4 6 3 -1.</_>
        <_>
          14 4 3 3 2.</_></rects>
      <tilted>0</tilted></_>
    <_>
      <rects>
        <_>
          11 5 4 3 -1.</_>
        <_>
          13 5 2 3 2.</_></rects>
      <tilted>0</tilted></_>
    <_>
      <rects>
        <_>
          11 6 2 6 -1.</_>
        <_>
          12 6 1 6 2.</_></rects>
      <tilted>0</tilted></_>
    <_>
      <rects>
        <_>
          11 6 9 6 -1.</_>
        <_>
          11 9 9 3 2.</_></rects>
      <tilted>0</tilted></_>
    <_>
      <rects>
        <_>
          11 10 4 6 -1.</_>
        <_>
          11 10 2 3 2.</_>
        <_>
          13 13 2 3 2.</_></rects>
      <tilted>0</tilted></_>
    <_>
      <rects>
        <_>
          11 12 6 2 -1.</_>
        <_>
          11 12 3 1 2.</_>
        <_>
          14 13 3 1 2.</_></rects>
      <tilted>0</tilted></_>
    <_>
      <rects>
        <_>
          11 13 8 1 -1.</_>
        <_>
          15 13 4 1 2.</_></rects>
      <tilted>0</tilted></_>
    <_>
      <rects>
        <_>
          11 14 2 6 -1.</_>
        <_>
          11 14 1 3 2.</_>
        <_>
          12 17 1 3 2.</_></rects>
      <tilted>0</tilted></_>
    <_>
      <rects>
        <_>
          11 16 1 2 -1.</_>
        <_>
          11 17 1 1 2.</_></rects>
      <tilted>0</tilted></_>
    <_>
      <rects>
        <_>
          12 0 5 8 -1.</_>
        <_>
          12 4 5 4 2.</_></rects>
      <tilted>0</tilted></_>
    <_>
      <rects>
        <_>
          12 0 12 4 -1.</_>
        <_>
          18 0 6 4 2.</_></rects>
      <tilted>0</tilted></_>
    <_>
      <rects>
        <_>
          12 2 6 6 -1.</_>
        <_>
          12 5 6 3 2.</_></rects>
      <tilted>0</tilted></_>
    <_>
      <rects>
        <_>
          12 4 2 3 -1.</_>
        <_>
          13 4 1 3 2.</_></rects>
      <tilted>0</tilted></_>
    <_>
      <rects>
        <_>
          12 4 1 12 -1.</_>
        <_>
          12 10 1 6 2.</_></rects>
      <tilted>0</tilted></_>
    <_>
      <rects>
        <_>
          12 4 7 12 -1.</_>
        <_>
          12 10 7 6 2.</_></rects>
      <tilted>0</tilted></_>
    <_>
      <rects>
        <_>
          12 5 2 1 -1.</_>
        <_>
          13 5 1 1 2.</_></rects>
      <tilted>0</tilted></_>
    <_>
      <rects>
        <_>
          12 5 2 3 -1.</_>
        <_>
          13 5 1 3 2.</_></rects>
      <tilted>0</tilted></_>
    <_>
      <rects>
        <_>
          12 6 2 1 -1.</_>
        <_>
          13 6 1 1 2.</_></rects>
      <tilted>0</tilted></_>
    <_>
      <rects>
        <_>
          12 7 2 1 -1.</_>
        <_>
          13 7 1 1 2.</_></rects>
      <tilted>0</tilted></_>
    <_>
      <rects>
        <_>
          12 16 2 2 -1.</_>
        <_>
          12 17 2 1 2.</_></rects>
      <tilted>0</tilted></_>
    <_>
      <rects>
        <_>
          13 1 2 6 -1.</_>
        <_>
          14 1 1 6 2.</_></rects>
      <tilted>0</tilted></_>
    <_>
      <rects>
        <_>
          13 1 10 6 -1.</_>
        <_>
          13 1 5 3 2.</_>
        <_>
          18 4 5 3 2.</_></rects>
      <tilted>0</tilted></_>
    <_>
      <rects>
        <_>
          13 1 9 2 -1.</_>
        <_>
          13 2 9 1 2.</_></rects>
      <tilted>0</tilted></_>
    <_>
      <rects>
        <_>
          13 2 10 1 -1.</_>
        <_>
          18 2 5 1 2.</_></rects>
      <tilted>0</tilted></_>
    <_>
      <rects>
        <_>
          13 2 10 6 -1.</_>
        <_>
          13 2 5 3 2.</_>
        <_>
          18 5 5 3 2.</_></rects>
      <tilted>0</tilted></_>
    <_>
      <rects>
        <_>
          13 3 2 4 -1.</_>
        <_>
          14 3 1 4 2.</_></rects>
      <tilted>0</tilted></_>
    <_>
      <rects>
        <_>
          13 4 2 2 -1.</_>
        <_>
          14 4 1 2 2.</_></rects>
      <tilted>0</tilted></_>
    <_>
      <rects>
        <_>
          13 7 3 10 -1.</_>
        <_>
          13 12 3 5 2.</_></rects>
      <tilted>0</tilted></_>
    <_>
      <rects>
        <_>
          13 8 6 5 -1.</_>
        <_>
          16 8 3 5 2.</_></rects>
      <tilted>0</tilted></_>
    <_>
      <rects>
        <_>
          13 10 2 2 -1.</_>
        <_>
          13 10 1 1 2.</_>
        <_>
          14 11 1 1 2.</_></rects>
      <tilted>0</tilted></_>
    <_>
      <rects>
        <_>
          13 11 3 8 -1.</_>
        <_>
          13 15 3 4 2.</_></rects>
      <tilted>0</tilted></_>
    <_>
      <rects>
        <_>
          13 12 1 10 -1.</_>
        <_>
          13 17 1 5 2.</_></rects>
      <tilted>0</tilted></_>
    <_>
      <rects>
        <_>
          13 13 1 2 -1.</_>
        <_>
          13 14 1 1 2.</_></rects>
      <tilted>0</tilted></_>
    <_>
      <rects>
        <_>
          13 13 2 4 -1.</_>
        <_>
          13 13 1 2 2.</_>
        <_>
          14 15 1 2 2.</_></rects>
      <tilted>0</tilted></_>
    <_>
      <rects>
        <_>
          13 15 3 2 -1.</_>
        <_>
          13 16 3 1 2.</_></rects>
      <tilted>0</tilted></_>
    <_>
      <rects>
        <_>
          13 17 2 2 -1.</_>
        <_>
          13 17 1 1 2.</_>
        <_>
          14 18 1 1 2.</_></rects>
      <tilted>0</tilted></_>
    <_>
      <rects>
        <_>
          13 20 6 2 -1.</_>
        <_>
          16 20 3 2 2.</_></rects>
      <tilted>0</tilted></_>
    <_>
      <rects>
        <_>
          14 0 2 2 -1.</_>
        <_>
          14 0 1 1 2.</_>
        <_>
          15 1 1 1 2.</_></rects>
      <tilted>0</tilted></_>
    <_>
      <rects>
        <_>
          14 1 10 2 -1.</_>
        <_>
          19 1 5 2 2.</_></rects>
      <tilted>0</tilted></_>
    <_>
      <rects>
        <_>
          14 4 10 20 -1.</_>
        <_>
          19 4 5 20 2.</_></rects>
      <tilted>0</tilted></_>
    <_>
      <rects>
        <_>
          14 11 4 1 -1.</_>
        <_>
          16 11 2 1 2.</_></rects>
      <tilted>0</tilted></_>
    <_>
      <rects>
        <_>
          15 0 5 2 -1.</_>
        <_>
          15 1 5 1 2.</_></rects>
      <tilted>0</tilted></_>
    <_>
      <rects>
        <_>
          15 1 2 12 -1.</_>
        <_>
          15 1 1 6 2.</_>
        <_>
          16 7 1 6 2.</_></rects>
      <tilted>0</tilted></_>
    <_>
      <rects>
        <_>
          15 3 2 8 -1.</_>
        <_>
          15 3 1 4 2.</_>
        <_>
          16 7 1 4 2.</_></rects>
      <tilted>0</tilted></_>
    <_>
      <rects>
        <_>
          15 9 2 4 -1.</_>
        <_>
          15 9 1 2 2.</_>
        <_>
          16 11 1 2 2.</_></rects>
      <tilted>0</tilted></_>
    <_>
      <rects>
        <_>
          15 11 2 2 -1.</_>
        <_>
          15 12 2 1 2.</_></rects>
      <tilted>0</tilted></_>
    <_>
      <rects>
        <_>
          15 12 5 2 -1.</_>
        <_>
          15 13 5 1 2.</_></rects>
      <tilted>0</tilted></_>
    <_>
      <rects>
        <_>
          15 13 2 4 -1.</_>
        <_>
          15 15 2 2 2.</_></rects>
      <tilted>0</tilted></_>
    <_>
      <rects>
        <_>
          15 16 4 1 -1.</_>
        <_>
          17 16 2 1 2.</_></rects>
      <tilted>0</tilted></_>
    <_>
      <rects>
        <_>
          15 17 4 2 -1.</_>
        <_>
          15 17 2 1 2.</_>
        <_>
          17 18 2 1 2.</_></rects>
      <tilted>0</tilted></_>
    <_>
      <rects>
        <_>
          16 0 8 2 -1.</_>
        <_>
          16 1 8 1 2.</_></rects>
      <tilted>0</tilted></_>
    <_>
      <rects>
        <_>
          16 1 8 23 -1.</_>
        <_>
          20 1 4 23 2.</_></rects>
      <tilted>0</tilted></_>
    <_>
      <rects>
        <_>
          16 4 2 2 -1.</_>
        <_>
          16 5 2 1 2.</_></rects>
      <tilted>0</tilted></_>
    <_>
      <rects>
        <_>
          16 6 1 12 -1.</_>
        <_>
          16 10 1 4 2.</_></rects>
      <tilted>0</tilted></_>
    <_>
      <rects>
        <_>
          16 7 1 4 -1.</_>
        <_>
          16 9 1 2 2.</_></rects>
      <tilted>0</tilted></_>
    <_>
      <rects>
        <_>
          16 8 1 4 -1.</_>
        <_>
          16 10 1 2 2.</_></rects>
      <tilted>0</tilted></_>
    <_>
      <rects>
        <_>
          16 11 3 4 -1.</_>
        <_>
          16 13 3 2 2.</_></rects>
      <tilted>0</tilted></_>
    <_>
      <rects>
        <_>
          16 12 3 2 -1.</_>
        <_>
          16 13 3 1 2.</_></rects>
      <tilted>0</tilted></_>
    <_>
      <rects>
        <_>
          17 5 1 2 -1.</_>
        <_>
          17 6 1 1 2.</_></rects>
      <tilted>0</tilted></_>
    <_>
      <rects>
        <_>
          17 7 4 6 -1.</_>
        <_>
          17 7 2 3 2.</_>
        <_>
          19 10 2 3 2.</_></rects>
      <tilted>0</tilted></_>
    <_>
      <rects>
        <_>
          17 7 3 2 -1.</_>
        <_>
          17 8 3 1 2.</_></rects>
      <tilted>0</tilted></_>
    <_>
      <rects>
        <_>
          17 13 2 2 -1.</_>
        <_>
          17 14 2 1 2.</_></rects>
      <tilted>0</tilted></_>
    <_>
      <rects>
        <_>
          18 0 6 14 -1.</_>
        <_>
          21 0 3 14 2.</_></rects>
      <tilted>0</tilted></_>
    <_>
      <rects>
        <_>
          18 14 3 2 -1.</_>
        <_>
          18 15 3 1 2.</_></rects>
      <tilted>0</tilted></_>
    <_>
      <rects>
        <_>
          18 15 1 2 -1.</_>
        <_>
          18 16 1 1 2.</_></rects>
      <tilted>0</tilted></_>
    <_>
      <rects>
        <_>
          20 8 4 2 -1.</_>
        <_>
          20 9 4 1 2.</_></rects>
      <tilted>0</tilted></_></features></cascade>
</opencv_storage>
