<?xml version="1.0"?>
<opencv_storage>
<stage11>
  <maxWeakCount>20</maxWeakCount>
  <stageThreshold>-1.3934153318405151e+00</stageThreshold>
  <weakClassifiers>
    <_>
      <internalNodes>
        0 -1 57789 -1.6236954252235591e-04</internalNodes>
      <leafValues>
        5.6210190057754517e-01 -4.1132822632789612e-01</leafValues></_>
    <_>
      <internalNodes>
        0 -1 152089 -4.2491689324378967e-02</internalNodes>
      <leafValues>
        6.4771407842636108e-01 -2.5331163406372070e-01</leafValues></_>
    <_>
      <internalNodes>
        0 -1 69592 2.1243116352707148e-03</internalNodes>
      <leafValues>
        -3.5742881894111633e-01 3.8422712683677673e-01</leafValues></_>
    <_>
      <internalNodes>
        0 -1 100559 -2.4596232105977833e-04</internalNodes>
      <leafValues>
        2.5965192914009094e-01 -4.9904239177703857e-01</leafValues></_>
    <_>
      <internalNodes>
        0 -1 75277 3.3595675631659105e-05</internalNodes>
      <leafValues>
        -3.8572868704795837e-01 2.8945201635360718e-01</leafValues></_>
    <_>
      <internalNodes>
        0 -1 87945 -3.0167767545208335e-04</internalNodes>
      <leafValues>
        2.4578471481800079e-01 -4.1637411713600159e-01</leafValues></_>
    <_>
      <internalNodes>
        0 -1 7252 7.3154142592102289e-04</internalNodes>
      <leafValues>
        -7.4823015928268433e-01 1.4491234719753265e-01</leafValues></_>
    <_>
      <internalNodes>
        0 -1 131806 -8.0066405644174665e-05</internalNodes>
      <leafValues>
        2.5681430101394653e-01 -3.5174953937530518e-01</leafValues></_>
    <_>
      <internalNodes>
        0 -1 76823 -1.5893820673227310e-03</internalNodes>
      <leafValues>
        -9.2032539844512939e-01 1.3006351888179779e-01</leafValues></_>
    <_>
      <internalNodes>
        0 -1 10206 -1.1790800094604492e-01</internalNodes>
      <leafValues>
        9.2993712425231934e-01 -1.1206391453742981e-01</leafValues></_>
    <_>
      <internalNodes>
        0 -1 105806 -3.6190815735608339e-03</internalNodes>
      <leafValues>
        2.8996834158897400e-01 -3.0837628245353699e-01</leafValues></_>
    <_>
      <internalNodes>
        0 -1 113799 -3.0583026818931103e-03</internalNodes>
      <leafValues>
        6.8244940042495728e-01 -1.6200613975524902e-01</leafValues></_>
    <_>
      <internalNodes>
        0 -1 114511 -7.5696641579270363e-04</internalNodes>
      <leafValues>
        1.3994622230529785e-01 -6.6087687015533447e-01</leafValues></_>
    <_>
      <internalNodes>
        0 -1 132335 -6.6557563841342926e-03</internalNodes>
      <leafValues>
        -7.9395192861557007e-01 1.1887083947658539e-01</leafValues></_>
    <_>
      <internalNodes>
        0 -1 102104 -6.9456407800316811e-03</internalNodes>
      <leafValues>
        -9.1349065303802490e-01 1.0505460202693939e-01</leafValues></_>
    <_>
      <internalNodes>
        0 -1 133760 5.6001241318881512e-04</internalNodes>
      <leafValues>
        1.1667352914810181e-01 -7.8470349311828613e-01</leafValues></_>
    <_>
      <internalNodes>
        0 -1 133760 -3.6867178278043866e-04</internalNodes>
      <leafValues>
        -6.2450283765792847e-01 1.4173395931720734e-01</leafValues></_>
    <_>
      <internalNodes>
        0 -1 325 1.4383882284164429e-02</internalNodes>
      <leafValues>
        -2.0180901885032654e-01 3.7636256217956543e-01</leafValues></_>
    <_>
      <internalNodes>
        0 -1 27540 2.8533053398132324e-01</internalNodes>
      <leafValues>
        -1.5024706721305847e-01 6.1219167709350586e-01</leafValues></_>
    <_>
      <internalNodes>
        0 -1 131016 1.1570896953344345e-02</internalNodes>
      <leafValues>
        1.1576241254806519e-01 -7.9823458194732666e-01</leafValues></_></weakClassifiers></stage11>
</opencv_storage>
