<?xml version="1.0"?>
<opencv_storage>
<stage14>
  <maxWeakCount>23</maxWeakCount>
  <stageThreshold>-1.3798158168792725e+00</stageThreshold>
  <weakClassifiers>
    <_>
      <internalNodes>
        0 -1 150153 -2.4062246084213257e-03</internalNodes>
      <leafValues>
        6.3735324144363403e-01 -2.4496255815029144e-01</leafValues></_>
    <_>
      <internalNodes>
        0 -1 73640 -7.9508293420076370e-03</internalNodes>
      <leafValues>
        4.0225365757942200e-01 -3.7998843193054199e-01</leafValues></_>
    <_>
      <internalNodes>
        0 -1 70569 1.4004989061504602e-03</internalNodes>
      <leafValues>
        -3.5210046172142029e-01 3.8207429647445679e-01</leafValues></_>
    <_>
      <internalNodes>
        0 -1 11662 -5.5242199450731277e-03</internalNodes>
      <leafValues>
        4.0580201148986816e-01 -2.9121592640876770e-01</leafValues></_>
    <_>
      <internalNodes>
        0 -1 119033 1.5504113398492336e-03</internalNodes>
      <leafValues>
        -4.7117078304290771e-01 1.9742949306964874e-01</leafValues></_>
    <_>
      <internalNodes>
        0 -1 140378 3.3398920204490423e-03</internalNodes>
      <leafValues>
        1.2271630018949509e-01 -8.5792142152786255e-01</leafValues></_>
    <_>
      <internalNodes>
        0 -1 123410 3.9001521654427052e-03</internalNodes>
      <leafValues>
        1.4116574823856354e-01 -7.0493942499160767e-01</leafValues></_>
    <_>
      <internalNodes>
        0 -1 111069 -1.3373035471886396e-03</internalNodes>
      <leafValues>
        -7.6167231798171997e-01 1.2729811668395996e-01</leafValues></_>
    <_>
      <internalNodes>
        0 -1 44712 9.0920203365385532e-04</internalNodes>
      <leafValues>
        -7.1054613590240479e-01 1.4179246127605438e-01</leafValues></_>
    <_>
      <internalNodes>
        0 -1 133267 2.0036073692608625e-04</internalNodes>
      <leafValues>
        -2.7297553420066833e-01 3.2848802208900452e-01</leafValues></_>
    <_>
      <internalNodes>
        0 -1 56239 5.0679133273661137e-03</internalNodes>
      <leafValues>
        1.0996416211128235e-01 -6.5758943557739258e-01</leafValues></_>
    <_>
      <internalNodes>
        0 -1 72336 -4.8389476723968983e-03</internalNodes>
      <leafValues>
        -9.3599653244018555e-01 1.1231824755668640e-01</leafValues></_>
    <_>
      <internalNodes>
        0 -1 154756 -7.0636603049933910e-04</internalNodes>
      <leafValues>
        -6.5448200702667236e-01 1.2667027115821838e-01</leafValues></_>
    <_>
      <internalNodes>
        0 -1 139661 -1.9280440174043179e-03</internalNodes>
      <leafValues>
        -6.0378539562225342e-01 1.2980355322360992e-01</leafValues></_>
    <_>
      <internalNodes>
        0 -1 97101 -2.3782748030498624e-04</internalNodes>
      <leafValues>
        -5.0816351175308228e-01 1.4467085897922516e-01</leafValues></_>
    <_>
      <internalNodes>
        0 -1 103056 1.1914049973711371e-03</internalNodes>
      <leafValues>
        -6.0654670000076294e-01 1.2378830462694168e-01</leafValues></_>
    <_>
      <internalNodes>
        0 -1 6776 8.0233495682477951e-03</internalNodes>
      <leafValues>
        1.2263371795415878e-01 -6.6952890157699585e-01</leafValues></_>
    <_>
      <internalNodes>
        0 -1 92514 3.4824333852156997e-05</internalNodes>
      <leafValues>
        -4.3294602632522583e-01 1.7282824218273163e-01</leafValues></_>
    <_>
      <internalNodes>
        0 -1 144368 -2.9548052698373795e-03</internalNodes>
      <leafValues>
        -6.9274610280990601e-01 1.0859128087759018e-01</leafValues></_>
    <_>
      <internalNodes>
        0 -1 95681 2.7398357633501291e-04</internalNodes>
      <leafValues>
        -2.3961997032165527e-01 2.7889356017112732e-01</leafValues></_>
    <_>
      <internalNodes>
        0 -1 88134 1.0182139230892062e-03</internalNodes>
      <leafValues>
        -2.1583819389343262e-01 3.1516340374946594e-01</leafValues></_>
    <_>
      <internalNodes>
        0 -1 75346 1.2874915264546871e-03</internalNodes>
      <leafValues>
        -8.6859637498855591e-01 9.4687819480895996e-02</leafValues></_>
    <_>
      <internalNodes>
        0 -1 9598 -7.1477040648460388e-02</internalNodes>
      <leafValues>
        8.1179994344711304e-01 -1.1106277257204056e-01</leafValues></_></weakClassifiers></stage14>
</opencv_storage>
