<?xml version="1.0"?>
<opencv_storage>
<cascade>
  <stageType>BOOST</stageType>
  <featureType>LBP</featureType>
  <height>24</height>
  <width>24</width>
  <stageParams>
    <boostType>RAB</boostType>
    <minHitRate>9.9500000476837158e-01</minHitRate>
    <maxFalseAlarm>5.0000000000000000e-01</maxFalseAlarm>
    <weightTrimRate>9.4999999999999996e-01</weightTrimRate>
    <maxDepth>1</maxDepth>
    <maxWeakCount>100</maxWeakCount></stageParams>
  <featureParams>
    <maxCatCount>256</maxCatCount>
    <featSize>1</featSize></featureParams>
  <stageNum>15</stageNum>
  <stages>
    <!-- stage 0 -->
    <_>
      <maxWeakCount>3</maxWeakCount>
      <stageThreshold>-1.2950000762939453e+00</stageThreshold>
      <weakClassifiers>
        <_>
          <internalNodes>
            0 -1 45 -21829 -20481 -21830 -21761 -16449 -1 -17477 -21825</internalNodes>
          <leafValues>
            -8.3125960826873779e-01 1.5160191059112549e+00</leafValues></_>
        <_>
          <internalNodes>
            0 -1 15 -18809248 -16777218 -1 -1 -143261836 -1 -1 -1</internalNodes>
          <leafValues>
            -1.0330702066421509e+00 6.5232616662979126e-01</leafValues></_>
        <_>
          <internalNodes>
            0 -1 122 -453968156 1693777918 -1 -1 -2 -1 -1 -1</internalNodes>
          <leafValues>
            -7.7418172359466553e-01 5.6932985782623291e-01</leafValues></_></weakClassifiers></_>
    <!-- stage 1 -->
    <_>
      <maxWeakCount>5</maxWeakCount>
      <stageThreshold>-1.5331469774246216e+00</stageThreshold>
      <weakClassifiers>
        <_>
          <internalNodes>
            0 -1 52 -4114 -18 -18 -1114130 -18 -1 -50 -1118322</internalNodes>
          <leafValues>
            -9.2855501174926758e-01 1.1139267683029175e+00</leafValues></_>
        <_>
          <internalNodes>
            0 -1 54 -185270540 -1 -185270273 -1 -524297 -1 2012741631 -1</internalNodes>
          <leafValues>
            -9.5963841676712036e-01 6.5923887491226196e-01</leafValues></_>
        <_>
          <internalNodes>
            0 -1 33 788475775 1073741823 -1 -1 -32769 -1 -1 -1</internalNodes>
          <leafValues>
            -6.6146087646484375e-01 5.8245420455932617e-01</leafValues></_>
        <_>
          <internalNodes>
            0 -1 115 -18 -285212673 -6 -16842754 -1 -1 -12 -251723777</internalNodes>
          <leafValues>
            -5.9554100036621094e-01 5.0271362066268921e-01</leafValues></_>
        <_>
          <internalNodes>
            0 -1 80 -268439634 -285212673 -2 -285212674 -1 -1 -9 -1</internalNodes>
          <leafValues>
            -4.3043336272239685e-01 6.4497494697570801e-01</leafValues></_></weakClassifiers></_>
    <!-- stage 2 -->
    <_>
      <maxWeakCount>5</maxWeakCount>
      <stageThreshold>-1.4264875650405884e+00</stageThreshold>
      <weakClassifiers>
        <_>
          <internalNodes>
            0 -1 87 -1 -1 -1 -1 -32769 -1 2147450751 2147450879</internalNodes>
          <leafValues>
            -8.1691396236419678e-01 1.1791700124740601e+00</leafValues></_>
        <_>
          <internalNodes>
            0 -1 42 1073741823 -1073741825 -1 1002176511 -1073741825 -1
            -1073741825 1002176511</internalNodes>
          <leafValues>
            -9.6986436843872070e-01 5.1161813735961914e-01</leafValues></_>
        <_>
          <internalNodes>
            0 -1 77 -16842764 -285278209 -65540 -285282322 -3 -1 -140
            -1359073426</internalNodes>
          <leafValues>
            -8.4823369979858398e-01 3.8056811690330505e-01</leafValues></_>
        <_>
          <internalNodes>
            0 -1 117 -32907 -32769 -1 -32769 -9 -1 -1 801054065</internalNodes>
          <leafValues>
            -5.8890116214752197e-01 5.2127242088317871e-01</leafValues></_>
        <_>
          <internalNodes>
            0 -1 25 -224 -1 -1 -1 2146959349 -1 -1 -1</internalNodes>
          <leafValues>
            -5.2814841270446777e-01 5.6862378120422363e-01</leafValues></_></weakClassifiers></_>
    <!-- stage 3 -->
    <_>
      <maxWeakCount>6</maxWeakCount>
      <stageThreshold>-1.4403932094573975e+00</stageThreshold>
      <weakClassifiers>
        <_>
          <internalNodes>
            0 -1 30 -21573 -20481 -21573 -1426085189 -65 -1 -16453
            -21573</internalNodes>
          <leafValues>
            -7.6444113254547119e-01 9.8294544219970703e-01</leafValues></_>
        <_>
          <internalNodes>
            0 -1 101 -129 -1 -1 -1 -1 -1 -9 -32907</internalNodes>
          <leafValues>
            -5.3041923046112061e-01 8.1898975372314453e-01</leafValues></_>
        <_>
          <internalNodes>
            0 -1 112 -990053148 -990052354 -1 -1 -10 -1 -1 -1</internalNodes>
          <leafValues>
            -9.6366518735885620e-01 3.8345730304718018e-01</leafValues></_>
        <_>
          <internalNodes>
            0 -1 81 -268439770 -1358954497 -26 -285212674 -129 -1 -137
            -1</internalNodes>
          <leafValues>
            -5.0597935914993286e-01 4.9209088087081909e-01</leafValues></_>
        <_>
          <internalNodes>
            0 -1 63 -1090584577 -1 -1 -1 -1 -1 -1 1069498239</internalNodes>
          <leafValues>
            -4.3623510003089905e-01 5.4861921072006226e-01</leafValues></_>
        <_>
          <internalNodes>
            0 -1 2 -1 -268435457 -4177 805253119 -129 -1 -32897
            2147450751</internalNodes>
          <leafValues>
            -5.1812118291854858e-01 4.1322436928749084e-01</leafValues></_></weakClassifiers></_>
    <!-- stage 4 -->
    <_>
      <maxWeakCount>8</maxWeakCount>
      <stageThreshold>-1.5583649873733521e+00</stageThreshold>
      <weakClassifiers>
        <_>
          <internalNodes>
            0 -1 53 -21969 -20481 -21825 -20481 -16385 -1 -56769 -20481</internalNodes>
          <leafValues>
            -5.7493108510971069e-01 8.7737512588500977e-01</leafValues></_>
        <_>
          <internalNodes>
            0 -1 99 -1 -1 -1 -1 -1 -1 -1 -34955</internalNodes>
          <leafValues>
            -5.5917048454284668e-01 6.8922728300094604e-01</leafValues></_>
        <_>
          <internalNodes>
            0 -1 16 -1 -1 -2 -285278210 -129 -1 -11 -134217729</internalNodes>
          <leafValues>
            -4.5249730348587036e-01 6.2830555438995361e-01</leafValues></_>
        <_>
          <internalNodes>
            0 -1 68 -268439553 -285212673 -1 -285212673 -1 -1 -1
            -285278209</internalNodes>
          <leafValues>
            -4.4739997386932373e-01 5.8066797256469727e-01</leafValues></_>
        <_>
          <internalNodes>
            0 -1 129 -218 788529151 -1 -1 -129 2147483647 -1 -1</internalNodes>
          <leafValues>
            -5.3936851024627686e-01 3.8622725009918213e-01</leafValues></_>
        <_>
          <internalNodes>
            0 -1 98 788282932 -1073741825 -1 -1073741825 -32907 -1
            -32897 1073692671</internalNodes>
          <leafValues>
            -5.9585118293762207e-01 3.6603501439094543e-01</leafValues></_>
        <_>
          <internalNodes>
            0 -1 23 1550900512 -327682 -2 -2 1433730932 -1 -1 -1</internalNodes>
          <leafValues>
            -7.8955388069152832e-01 2.4345983564853668e-01</leafValues></_>
        <_>
          <internalNodes>
            0 -1 126 -18 -285212673 -2 -16842754 -1 -1 -10 -184549377</internalNodes>
          <leafValues>
            -3.9471286535263062e-01 4.0550759434700012e-01</leafValues></_></weakClassifiers></_>
    <!-- stage 5 -->
    <_>
      <maxWeakCount>8</maxWeakCount>
      <stageThreshold>-1.6111286878585815e+00</stageThreshold>
      <weakClassifiers>
        <_>
          <internalNodes>
            0 -1 21 -1 -1073741825 -1 805306367 -1 -1 -1 1073741823</internalNodes>
          <leafValues>
            -6.7145854234695435e-01 7.6573818922042847e-01</leafValues></_>
        <_>
          <internalNodes>
            0 -1 91 -1 -1 -1 -1 2147450751 -1 2147450751 -1</internalNodes>
          <leafValues>
            -5.0965976715087891e-01 7.2100406885147095e-01</leafValues></_>
        <_>
          <internalNodes>
            0 -1 17 -1 -285212673 -1 -285212673 -1 -1 -1 -1</internalNodes>
          <leafValues>
            -3.5288929939270020e-01 8.6761826276779175e-01</leafValues></_>
        <_>
          <internalNodes>
            0 -1 123 -285282580 -453050370 -1 -1 -2 -1 -1 -1</internalNodes>
          <leafValues>
            -5.8284127712249756e-01 3.5666984319686890e-01</leafValues></_>
        <_>
          <internalNodes>
            0 -1 66 -285233632 -16781570 -2 -285217042 -78 -1 -222
            -285233630</internalNodes>
          <leafValues>
            -8.1196874380111694e-01 2.6784655451774597e-01</leafValues></_>
        <_>
          <internalNodes>
            0 -1 29 -1 -268435457 -1 -285212673 -129 2013265919 -137
            1199046527</internalNodes>
          <leafValues>
            -5.2542024850845337e-01 3.5606643557548523e-01</leafValues></_>
        <_>
          <internalNodes>
            0 -1 35 -268501148 -285278210 -2 -16842754 -137 -1 -12
            -16845324</internalNodes>
          <leafValues>
            -5.4246485233306885e-01 3.5573887825012207e-01</leafValues></_>
        <_>
          <internalNodes>
            0 -1 85 788283252 -1073741825 -1 -1073741825 -1 -1 -32769
            1073692671</internalNodes>
          <leafValues>
            -5.0228363275527954e-01 3.6624768376350403e-01</leafValues></_></weakClassifiers></_>
    <!-- stage 6 -->
    <_>
      <maxWeakCount>9</maxWeakCount>
      <stageThreshold>-1.5540379285812378e+00</stageThreshold>
      <weakClassifiers>
        <_>
          <internalNodes>
            0 -1 88 -32769 -1 -1 -1 2147448831 -32769 2013222911
            2013222911</internalNodes>
          <leafValues>
            -6.8277591466903687e-01 6.9527304172515869e-01</leafValues></_>
        <_>
          <internalNodes>
            0 -1 58 -65537 -65537 -1 -65537 -1 -1 -1 -285278209</internalNodes>
          <leafValues>
            -5.0477981567382813e-01 6.5571045875549316e-01</leafValues></_>
        <_>
          <internalNodes>
            0 -1 4 -268439569 -268435457 -1 -1 2147450751 -1 -1 -1</internalNodes>
          <leafValues>
            -5.1154214143753052e-01 6.1047077178955078e-01</leafValues></_>
        <_>
          <internalNodes>
            0 -1 14 -352388368 -16842754 587004512 -1426128897 -524428
            -1 -139 -1</internalNodes>
          <leafValues>
            -7.5722491741180420e-01 3.1849473714828491e-01</leafValues></_>
        <_>
          <internalNodes>
            0 -1 138 -1 -268435457 -1 -16842753 -1 -1 -12 -16842764</internalNodes>
          <leafValues>
            -4.3520352244377136e-01 5.2499246597290039e-01</leafValues></_>
        <_>
          <internalNodes>
            0 -1 5 -17 -1 -17 -268435457 -1 -1 -129 2013265919</internalNodes>
          <leafValues>
            -4.2706820368766785e-01 4.9092358350753784e-01</leafValues></_>
        <_>
          <internalNodes>
            0 -1 55 801062704 -1073741825 -1 -1 2147483519 -1 -32905 -1</internalNodes>
          <leafValues>
            -4.9357825517654419e-01 3.2762795686721802e-01</leafValues></_>
        <_>
          <internalNodes>
            0 -1 120 -1 -1 -1 -1 -137 2147483647 -129 -1</internalNodes>
          <leafValues>
            -2.2817631065845490e-01 7.2746717929840088e-01</leafValues></_>
        <_>
          <internalNodes>
            0 -1 100 2147483631 1879048191 -1 2147483647 2147483502
            2147483647 2147450751 1476395007</internalNodes>
          <leafValues>
            -3.2441818714141846e-01 4.4630643725395203e-01</leafValues></_></weakClassifiers></_>
    <!-- stage 7 -->
    <_>
      <maxWeakCount>11</maxWeakCount>
      <stageThreshold>-1.4866845607757568e+00</stageThreshold>
      <weakClassifiers>
        <_>
          <internalNodes>
            0 -1 67 -1 -1 -1 -1 -1 -1 -1 -1426128897</internalNodes>
          <leafValues>
            -2.2585989534854889e-01 9.3898433446884155e-01</leafValues></_>
        <_>
          <internalNodes>
            0 -1 28 -1 -1 -1 -16842754 -1 -1 -11 -16842764</internalNodes>
          <leafValues>
            -5.0557225942611694e-01 5.5381280183792114e-01</leafValues></_>
        <_>
          <internalNodes>
            0 -1 69 -1 -1 -1 -1 2147450751 2147483647 2147450751
            2147483647</internalNodes>
          <leafValues>
            -7.6167792081832886e-01 3.6477458477020264e-01</leafValues></_>
        <_>
          <internalNodes>
            0 -1 46 -1 1073741823 -1 -1 -1 -1 -1 -1</internalNodes>
          <leafValues>
            -2.8097903728485107e-01 7.7497708797454834e-01</leafValues></_>
        <_>
          <internalNodes>
            0 -1 114 1157557998 2013265919 -1 -1 -1 -1 -1 -1</internalNodes>
          <leafValues>
            -4.5272201299667358e-01 4.0839707851409912e-01</leafValues></_>
        <_>
          <internalNodes>
            0 -1 6 -285212690 -285212673 -17 -268435457 2147483495
            2013265919 -129 2147483647</internalNodes>
          <leafValues>
            -5.5942875146865845e-01 3.3228120207786560e-01</leafValues></_>
        <_>
          <internalNodes>
            0 -1 56 -1 -1 -1 -1 2147450751 2147450879 -129 1467318135</internalNodes>
          <leafValues>
            -4.0412628650665283e-01 4.1007205843925476e-01</leafValues></_>
        <_>
          <internalNodes>
            0 -1 96 -65540 -65537 -1 -65537 -3 -1 -3 -65537</internalNodes>
          <leafValues>
            -2.2180250287055969e-01 6.9147354364395142e-01</leafValues></_>
        <_>
          <internalNodes>
            0 -1 9 -268435473 -285278209 -1 -285212673 -129 2147483647
            -9 2013265919</internalNodes>
          <leafValues>
            -3.7777686119079590e-01 3.6389699578285217e-01</leafValues></_>
        <_>
          <internalNodes>
            0 -1 92 -4306 -1 -1 -285212673 -32905 -1 -137 -1</internalNodes>
          <leafValues>
            -3.1928122043609619e-01 4.2730745673179626e-01</leafValues></_>
        <_>
          <internalNodes>
            0 -1 65 -1359036488 -1359020033 -1 -1358954497 -16590 -1
            -32909 251608959</internalNodes>
          <leafValues>
            -5.1199489831924438e-01 2.4256981909275055e-01</leafValues></_></weakClassifiers></_>
    <!-- stage 8 -->
    <_>
      <maxWeakCount>12</maxWeakCount>
      <stageThreshold>-1.4468548297882080e+00</stageThreshold>
      <weakClassifiers>
        <_>
          <internalNodes>
            0 -1 10 -1 -268435457 -1 805306367 -1 -1 -1 2147483647</internalNodes>
          <leafValues>
            -3.5563179850578308e-01 7.6768916845321655e-01</leafValues></_>
        <_>
          <internalNodes>
            0 -1 26 -28 -1 -2 -2 -11 -1 -12 -134742027</internalNodes>
          <leafValues>
            -5.4955190420150757e-01 4.8528197407722473e-01</leafValues></_>
        <_>
          <internalNodes>
            0 -1 113 788475647 1862270975 -1 -1 2147450879 -1 -1 -1</internalNodes>
          <leafValues>
            -5.7057404518127441e-01 4.3537428975105286e-01</leafValues></_>
        <_>
          <internalNodes>
            0 -1 110 -1 -1 -1 -1 -1 -1 -1 -32779</internalNodes>
          <leafValues>
            -2.8423413634300232e-01 7.8831923007965088e-01</leafValues></_>
        <_>
          <internalNodes>
            0 -1 95 -17 805306367 -1 -1342177281 -1 1073741823 -4115
            83230719</internalNodes>
          <leafValues>
            -5.0123655796051025e-01 3.7792423367500305e-01</leafValues></_>
        <_>
          <internalNodes>
            0 -1 135 -1 -1 -2 -16777217 -1 -1 -12 -134217729</internalNodes>
          <leafValues>
            -3.0136135220527649e-01 5.7932341098785400e-01</leafValues></_>
        <_>
          <internalNodes>
            0 -1 74 -2 -65537 -1 -65537 -11 -131073 -3 -131073</internalNodes>
          <leafValues>
            -2.5931227207183838e-01 6.3997811079025269e-01</leafValues></_>
        <_>
          <internalNodes>
            0 -1 80 -1358975190 -1358954497 -82 -285282306 -129 -1 -10
            -2</internalNodes>
          <leafValues>
            -5.6868392229080200e-01 2.6575794816017151e-01</leafValues></_>
        <_>
          <internalNodes>
            0 -1 103 2147483647 2147483647 -1 2147483647 2147446639
            2147483647 2147434367 2147450879</internalNodes>
          <leafValues>
            -4.8944878578186035e-01 3.1720256805419922e-01</leafValues></_>
        <_>
          <internalNodes>
            0 -1 39 -16777502 788529151 -1 -1 -137 2147483647 -129
            2147483647</internalNodes>
          <leafValues>
            -4.6612784266471863e-01 2.8541049361228943e-01</leafValues></_>
        <_>
          <internalNodes>
            0 -1 60 -16973904 -16973825 -16842832 687648504 -1 -1 -10
            83627812</internalNodes>
          <leafValues>
            -8.6302757263183594e-01 1.8799531459808350e-01</leafValues></_>
        <_>
          <internalNodes>
            0 -1 3 -285217042 -268435457 -1 -1 2147450743 2147483647 -1
            -1</internalNodes>
          <leafValues>
            -4.1810894012451172e-01 3.3486995100975037e-01</leafValues></_></weakClassifiers></_>
    <!-- stage 9 -->
    <_>
      <maxWeakCount>12</maxWeakCount>
      <stageThreshold>-1.5707803964614868e+00</stageThreshold>
      <weakClassifiers>
        <_>
          <internalNodes>
            0 -1 45 -21829 -20481 -21829 -21761 -16449 -1 -17477 -21825</internalNodes>
          <leafValues>
            -5.9560471773147583e-01 6.4843302965164185e-01</leafValues></_>
        <_>
          <internalNodes>
            0 -1 61 -1 -1 -1 -1 -1 -1 -1 -1090584577</internalNodes>
          <leafValues>
            -3.6237749457359314e-01 7.5870811939239502e-01</leafValues></_>
        <_>
          <internalNodes>
            0 -1 83 -268439770 -285212673 -4178 -285212673 -137 -1 -137
            -1</internalNodes>
          <leafValues>
            -5.1438552141189575e-01 4.0692636370658875e-01</leafValues></_>
        <_>
          <internalNodes>
            0 -1 12 -18 -1 -2 -16843010 -137 -1 -12 -134742025</internalNodes>
          <leafValues>
            -6.0022014379501343e-01 3.3478572964668274e-01</leafValues></_>
        <_>
          <internalNodes>
            0 -1 117 -32779 -32769 -1 2147450879 -1 -1 -1 792665461</internalNodes>
          <leafValues>
            -5.1187258958816528e-01 3.6667993664741516e-01</leafValues></_>
        <_>
          <internalNodes>
            0 -1 90 -4306 -1 -2 -1 -32905 -1 -140 -139</internalNodes>
          <leafValues>
            -5.0544983148574829e-01 3.3558738231658936e-01</leafValues></_>
        <_>
          <internalNodes>
            0 -1 34 -1073742017 805306367 -1 -1 -1 -1 -1 -1</internalNodes>
          <leafValues>
            -3.4842538833618164e-01 4.6132341027259827e-01</leafValues></_>
        <_>
          <internalNodes>
            0 -1 127 -1 -1 -1 -1 -137 -1 -129 -1</internalNodes>
          <leafValues>
            -2.2866697609424591e-01 7.2169327735900879e-01</leafValues></_>
        <_>
          <internalNodes>
            0 -1 48 -1 -1 -1 -268435457 -1 2147483647 -1 2013265919</internalNodes>
          <leafValues>
            -2.6828008890151978e-01 5.3496736288070679e-01</leafValues></_>
        <_>
          <internalNodes>
            0 -1 98 -65540 -1 -1 -1 -1 -1 -1 -1</internalNodes>
          <leafValues>
            -1.9057331979274750e-01 8.1639981269836426e-01</leafValues></_>
        <_>
          <internalNodes>
            0 -1 22 -789512384 1358233599 -16973996 1089798101 -524428
            -1 -3 1577058303</internalNodes>
          <leafValues>
            -8.7520736455917358e-01 1.8017548322677612e-01</leafValues></_>
        <_>
          <internalNodes>
            0 -1 86 -1 -1 -1 -1 -1 -1 2147450751 1073741823</internalNodes>
          <leafValues>
            -4.1739025712013245e-01 3.2111364603042603e-01</leafValues></_></weakClassifiers></_>
    <!-- stage 10 -->
    <_>
      <maxWeakCount>14</maxWeakCount>
      <stageThreshold>-1.4400274753570557e+00</stageThreshold>
      <weakClassifiers>
        <_>
          <internalNodes>
            0 -1 101 -1 -1 -1 -1 -1 -1 -1 -32907</internalNodes>
          <leafValues>
            -1.7443133890628815e-01 8.7305390834808350e-01</leafValues></_>
        <_>
          <internalNodes>
            0 -1 76 -12 -65538 -1 -1 -11 -1 -3 -1</internalNodes>
          <leafValues>
            -3.2307317852973938e-01 7.1322530508041382e-01</leafValues></_>
        <_>
          <internalNodes>
            0 -1 134 -130 -285212673 -2 -16842754 -12 -1 -12 -16842764</internalNodes>
          <leafValues>
            -5.6613516807556152e-01 3.5953876376152039e-01</leafValues></_>
        <_>
          <internalNodes>
            0 -1 24 -1 1073741823 -1 -1 -1 -1 -1 -1</internalNodes>
          <leafValues>
            -2.7881720662117004e-01 6.8123120069503784e-01</leafValues></_>
        <_>
          <internalNodes>
            0 -1 20 -1 -285212673 -1 -268435457 -1 -1 -1 -1</internalNodes>
          <leafValues>
            -2.4225111305713654e-01 6.6166514158248901e-01</leafValues></_>
        <_>
          <internalNodes>
            0 -1 38 -1 -1 -1 -2 -1 -1 -9 2013230967</internalNodes>
          <leafValues>
            -3.4192362427711487e-01 4.4783473014831543e-01</leafValues></_>
        <_>
          <internalNodes>
            0 -1 129 -268435674 788529151 -1 -16777217 -129 2147483647
            -1 -1</internalNodes>
          <leafValues>
            -4.2537322640419006e-01 2.9693701863288879e-01</leafValues></_>
        <_>
          <internalNodes>
            0 -1 141 -32897 -268435457 -1 -285212673 -32897 2147483647
            -137 2013265919</internalNodes>
          <leafValues>
            -3.3681473135948181e-01 3.4149497747421265e-01</leafValues></_>
        <_>
          <internalNodes>
            0 -1 68 -285216786 -285212673 -1 -285212673 -1 -1 -1
            -285278209</internalNodes>
          <leafValues>
            -3.8300529122352600e-01 3.1150984764099121e-01</leafValues></_>
        <_>
          <internalNodes>
            0 -1 85 788283252 -1 -1 -1073741825 -1 -1 -32769 1073692671</internalNodes>
          <leafValues>
            -4.3532970547676086e-01 2.7281299233436584e-01</leafValues></_>
        <_>
          <internalNodes>
            0 -1 93 -285217042 -1 -1 -1 2013230967 2013265919 -1
            2013265919</internalNodes>
          <leafValues>
            -4.5209559798240662e-01 2.4810737371444702e-01</leafValues></_>
        <_>
          <internalNodes>
            0 -1 2 -268484609 -268435457 -4113 805253119 -32769 -1
            -32897 2147450751</internalNodes>
          <leafValues>
            -4.3084326386451721e-01 2.6753374934196472e-01</leafValues></_>
        <_>
          <internalNodes>
            0 -1 36 -18 -286326802 -1 -285212673 -171 1165295460 -137
            1148714879</internalNodes>
          <leafValues>
            -6.0365486145019531e-01 2.0468185842037201e-01</leafValues></_>
        <_>
          <internalNodes>
            0 -1 13 -1 -1 -2 -16842754 -129 -1 -9 -134217729</internalNodes>
          <leafValues>
            -2.6085650920867920e-01 4.1705235838890076e-01</leafValues></_></weakClassifiers></_>
    <!-- stage 11 -->
    <_>
      <maxWeakCount>15</maxWeakCount>
      <stageThreshold>-1.5090439319610596e+00</stageThreshold>
      <weakClassifiers>
        <_>
          <internalNodes>
            0 -1 111 1146158312 1568014335 -1 -1 -33685505 -1 -1 -1</internalNodes>
          <leafValues>
            -7.2270011901855469e-01 5.7142990827560425e-01</leafValues></_>
        <_>
          <internalNodes>
            0 -1 31 -65540 -1 -1 -1 -3 -1 -3 -131211</internalNodes>
          <leafValues>
            -3.3860695362091064e-01 6.9892293214797974e-01</leafValues></_>
        <_>
          <internalNodes>
            0 -1 44 -1359020034 -1359020033 -1 -285278209 -1 -1 -1
            -65537</internalNodes>
          <leafValues>
            -4.3132215738296509e-01 4.8480442166328430e-01</leafValues></_>
        <_>
          <internalNodes>
            0 -1 49 -65538 -285278209 -1 -65537 -12 -1 -1 -1</internalNodes>
          <leafValues>
            -2.9401263594627380e-01 6.2321114540100098e-01</leafValues></_>
        <_>
          <internalNodes>
            0 -1 32 1966472992 2147483647 -1 -1 -1 -1 -1 -1</internalNodes>
          <leafValues>
            -4.3697148561477661e-01 3.4079015254974365e-01</leafValues></_>
        <_>
          <internalNodes>
            0 -1 118 -1 -268435457 -1 -1 -1 2147483647 -2 654311423</internalNodes>
          <leafValues>
            -3.2043087482452393e-01 4.3510371446609497e-01</leafValues></_>
        <_>
          <internalNodes>
            0 -1 104 -1 -1 -1 -1 2147450751 2147483647 -1 -1</internalNodes>
          <leafValues>
            -2.7830174565315247e-01 4.8998773097991943e-01</leafValues></_>
        <_>
          <internalNodes>
            0 -1 140 -1 -1 -1 -1 -1 -1 -11 -1</internalNodes>
          <leafValues>
            -1.6289389133453369e-01 8.3168840408325195e-01</leafValues></_>
        <_>
          <internalNodes>
            0 -1 18 -1 -1 -1 805306367 -1 -1 -1 2147483647</internalNodes>
          <leafValues>
            -3.4894964098930359e-01 3.4519618749618530e-01</leafValues></_>
        <_>
          <internalNodes>
            0 -1 73 1862205284 788463615 -1 788529151 2147450743
            2147483647 2147483511 805306367</internalNodes>
          <leafValues>
            -4.3013033270835876e-01 2.6680982112884521e-01</leafValues></_>
        <_>
          <internalNodes>
            0 -1 97 -65540 -1 -1 -1 -1 -1 -1 -1073774593</internalNodes>
          <leafValues>
            -2.0897825062274933e-01 5.4071682691574097e-01</leafValues></_>
        <_>
          <internalNodes>
            0 -1 102 -131588 -1 -1 -1 -131075 -1 -131075 2004189045</internalNodes>
          <leafValues>
            -4.4237458705902100e-01 2.3693944513797760e-01</leafValues></_>
        <_>
          <internalNodes>
            0 -1 43 1073708863 -268435457 -1342181585 -1342177281 -129
            2147483647 1073692455 805306367</internalNodes>
          <leafValues>
            -4.8226508498191833e-01 2.2497089207172394e-01</leafValues></_>
        <_>
          <internalNodes>
            0 -1 78 -1358975186 -1358954497 -18 -285278210 -129 -1 -1
            -268435458</internalNodes>
          <leafValues>
            -4.4064605236053467e-01 2.7529934048652649e-01</leafValues></_>
        <_>
          <internalNodes>
            0 -1 8 -1342177297 -1358954497 -1 -285212673 -129 2147483647
            -137 2013265919</internalNodes>
          <leafValues>
            -3.1844678521156311e-01 3.1818559765815735e-01</leafValues></_></weakClassifiers></_>
    <!-- stage 12 -->
    <_>
      <maxWeakCount>16</maxWeakCount>
      <stageThreshold>-1.5340510606765747e+00</stageThreshold>
      <weakClassifiers>
        <_>
          <internalNodes>
            0 -1 47 -224 -2 -4 -4 -11 -1 -12 -33685516</internalNodes>
          <leafValues>
            -2.1750099956989288e-01 7.2958272695541382e-01</leafValues></_>
        <_>
          <internalNodes>
            0 -1 59 -1 -1 -1 -1 -1 -1 -1 -1359282177</internalNodes>
          <leafValues>
            -4.7173395752906799e-01 4.6532365679740906e-01</leafValues></_>
        <_>
          <internalNodes>
            0 -1 139 -1073741889 -1073741825 -1 -1073741825 -1 -1 -1
            -1073741825</internalNodes>
          <leafValues>
            -2.7446660399436951e-01 7.4928587675094604e-01</leafValues></_>
        <_>
          <internalNodes>
            0 -1 119 -1 -1 -1 -1 -137 -1 -129 -1</internalNodes>
          <leafValues>
            -3.1018501520156860e-01 6.6220510005950928e-01</leafValues></_>
        <_>
          <internalNodes>
            0 -1 64 -65538 -16842753 -1 -65537 -4 -131073 -3 -196611</internalNodes>
          <leafValues>
            -3.1221380829811096e-01 5.4580962657928467e-01</leafValues></_>
        <_>
          <internalNodes>
            0 -1 105 -4097 -1 -1 -1 2147450879 2147483647 -1 -1</internalNodes>
          <leafValues>
            -3.3446010947227478e-01 4.4579496979713440e-01</leafValues></_>
        <_>
          <internalNodes>
            0 -1 11 -285217025 -1 -1 -1 -129 -1 -1 -1</internalNodes>
          <leafValues>
            -2.2690871357917786e-01 5.6106579303741455e-01</leafValues></_>
        <_>
          <internalNodes>
            0 -1 131 -1 -268435457 -1 -1 -1 -1 -9 -134217729</internalNodes>
          <leafValues>
            -2.2686944901943207e-01 6.2949615716934204e-01</leafValues></_>
        <_>
          <internalNodes>
            0 -1 63 -1363214338 -16777217 -1 -1 -1073741825 -1
            1073643519 783949622</internalNodes>
          <leafValues>
            -4.4004040956497192e-01 2.6223248243331909e-01</leafValues></_>
        <_>
          <internalNodes>
            0 -1 71 -268435550 117440511 -9 -1 -1 1207959551 -1
            2013265919</internalNodes>
          <leafValues>
            -3.7956544756889343e-01 3.1407195329666138e-01</leafValues></_>
        <_>
          <internalNodes>
            0 -1 72 -1 -1 -1 -285212673 -1 -1 -137 788479863</internalNodes>
          <leafValues>
            -2.9017165303230286e-01 4.0934267640113831e-01</leafValues></_>
        <_>
          <internalNodes>
            0 -1 85 -65540 -1 -1 -1 -1 -1 -1 -1</internalNodes>
          <leafValues>
            -1.7508582770824432e-01 6.6856032609939575e-01</leafValues></_>
        <_>
          <internalNodes>
            0 -1 94 -2 -1 -2 -1 -11 1979711487 -4 83886077</internalNodes>
          <leafValues>
            -3.6504781246185303e-01 2.6962229609489441e-01</leafValues></_>
        <_>
          <internalNodes>
            0 -1 133 -65540 -1 -1 -1 -1 -1 -1 -16842753</internalNodes>
          <leafValues>
            -1.4341145753860474e-01 6.8852156400680542e-01</leafValues></_>
        <_>
          <internalNodes>
            0 -1 136 -268435666 -285212673 -18 -285212673 2147450708
            2013265791 -140 1996488575</internalNodes>
          <leafValues>
            -4.8990091681480408e-01 2.0812717080116272e-01</leafValues></_>
        <_>
          <internalNodes>
            0 -1 51 -458758 -151977985 -1 1895104511 -1 -1 -1 1442840575</internalNodes>
          <leafValues>
            -4.0856796503067017e-01 2.3217436671257019e-01</leafValues></_></weakClassifiers></_>
    <!-- stage 13 -->
    <_>
      <maxWeakCount>18</maxWeakCount>
      <stageThreshold>-1.4993826150894165e+00</stageThreshold>
      <weakClassifiers>
        <_>
          <internalNodes>
            0 -1 124 -285278466 -16842753 -65538 -16842754 -1 -1 -1
            -193658881</internalNodes>
          <leafValues>
            -1.6218353807926178e-01 7.4018579721450806e-01</leafValues></_>
        <_>
          <internalNodes>
            0 -1 121 -3 -1 -1 -1 -3 -1 -3 -229379</internalNodes>
          <leafValues>
            -3.6425811052322388e-01 5.2911382913589478e-01</leafValues></_>
        <_>
          <internalNodes>
            0 -1 41 -16842754 -16777217 -2 -16842754 -1 -1 -1 -1</internalNodes>
          <leafValues>
            -3.2271733880043030e-01 5.9611654281616211e-01</leafValues></_>
        <_>
          <internalNodes>
            0 -1 19 -36865 -1 -1 -1 2147450751 -1 2147450879 2147450879</internalNodes>
          <leafValues>
            -3.9648166298866272e-01 3.4223726391792297e-01</leafValues></_>
        <_>
          <internalNodes>
            0 -1 70 -285217246 -1 -285217246 -16777217 -129 -1 -137 -1</internalNodes>
          <leafValues>
            -6.7879408597946167e-01 1.9801990687847137e-01</leafValues></_>
        <_>
          <internalNodes>
            0 -1 137 -206 -268435457 -1 -1 -1 -1 -1 -1</internalNodes>
          <leafValues>
            -2.6187929511070251e-01 4.6403253078460693e-01</leafValues></_>
        <_>
          <internalNodes>
            0 -1 23 1433467936 -2 -1 -1 1433730933 -1 -1 -1</internalNodes>
          <leafValues>
            -7.7737540006637573e-01 1.6630725562572479e-01</leafValues></_>
        <_>
          <internalNodes>
            0 -1 84 -4 -65538 -1 -65537 -11 -1 -1 -1</internalNodes>
          <leafValues>
            -2.0225034654140472e-01 6.0859543085098267e-01</leafValues></_>
        <_>
          <internalNodes>
            0 -1 37 -278 -285212929 -1 -285212673 -1 -1 -129 1207926655</internalNodes>
          <leafValues>
            -3.3994269371032715e-01 3.4448096156120300e-01</leafValues></_>
        <_>
          <internalNodes>
            0 -1 50 -1090584580 -65537 -1 -65537 -3 -1 -3 -1073938435</internalNodes>
          <leafValues>
            -4.7735512256622314e-01 2.8119954466819763e-01</leafValues></_>
        <_>
          <internalNodes>
            0 -1 75 -65538 -1 -1 -1 -1 -1 -1 -1</internalNodes>
          <leafValues>
            -1.4123955368995667e-01 8.7700670957565308e-01</leafValues></_>
        <_>
          <internalNodes>
            0 -1 79 -1 -1 -1 -1 -1 2147483647 -129 2013265919</internalNodes>
          <leafValues>
            -3.4176850318908691e-01 3.1028154492378235e-01</leafValues></_>
        <_>
          <internalNodes>
            0 -1 130 -1 -268435457 -2 -16842753 -1 -1 -12 -134217729</internalNodes>
          <leafValues>
            -2.9514065384864807e-01 3.7815111875534058e-01</leafValues></_>
        <_>
          <internalNodes>
            0 -1 7 -1 -1 -1 -16777217 -129 -1 -1 -134217729</internalNodes>
          <leafValues>
            -1.7217753827571869e-01 6.7733669281005859e-01</leafValues></_>
        <_>
          <internalNodes>
            0 -1 106 -146 -1 -1 -16777217 -32907 2139062271 -1
            2004352895</internalNodes>
          <leafValues>
            -2.7614116668701172e-01 3.3057823777198792e-01</leafValues></_>
        <_>
          <internalNodes>
            0 -1 117 -32908 -32801 -1 1073709055 -1 -1 -1 801054197</internalNodes>
          <leafValues>
            -3.9450889825820923e-01 2.3357731103897095e-01</leafValues></_>
        <_>
          <internalNodes>
            0 -1 108 -1 -1 -1 -1 -32897 -1 1073692479 1073741823</internalNodes>
          <leafValues>
            -3.7451288104057312e-01 2.5368922948837280e-01</leafValues></_>
        <_>
          <internalNodes>
            0 -1 89 1878994726 -65 -82 -268435473 -32905 -1 -32988
            -268468480</internalNodes>
          <leafValues>
            -5.2053940296173096e-01 1.7189794778823853e-01</leafValues></_></weakClassifiers></_>
    <!-- stage 14 -->
    <_>
      <maxWeakCount>18</maxWeakCount>
      <stageThreshold>-1.5283192396163940e+00</stageThreshold>
      <weakClassifiers>
        <_>
          <internalNodes>
            0 -1 55 716914464 -1073741825 -137 -1 2147483511 -1 -137 -1</internalNodes>
          <leafValues>
            -4.0352162718772888e-01 6.1428606510162354e-01</leafValues></_>
        <_>
          <internalNodes>
            0 -1 17 -1 -285212673 -1 -268435457 -1 -1 -1 -1</internalNodes>
          <leafValues>
            -2.9637789726257324e-01 6.9798636436462402e-01</leafValues></_>
        <_>
          <internalNodes>
            0 -1 62 -32769 -1 -1 -32769 -32769 -32769 -32769 2139062135</internalNodes>
          <leafValues>
            -3.2848003506660461e-01 5.9288978576660156e-01</leafValues></_>
        <_>
          <internalNodes>
            0 -1 82 -1 -1 -1 -1 2147450879 -1 -1 -1</internalNodes>
          <leafValues>
            -3.1718668341636658e-01 5.5332332849502563e-01</leafValues></_>
        <_>
          <internalNodes>
            0 -1 107 -224 -268435457 -10 -1 -9 -1 -11 -1</internalNodes>
          <leafValues>
            -2.9060176014900208e-01 4.8550030589103699e-01</leafValues></_>
        <_>
          <internalNodes>
            0 -1 66 -16781662 -1 -2 -4354 -9 -1 -14 -4446</internalNodes>
          <leafValues>
            -4.7456580400466919e-01 2.4941387772560120e-01</leafValues></_>
        <_>
          <internalNodes>
            0 -1 125 -285282322 -285278210 -18 -16842754 -2 -184549377
            -12 -184614914</internalNodes>
          <leafValues>
            -4.9174308776855469e-01 2.5236326456069946e-01</leafValues></_>
        <_>
          <internalNodes>
            0 -1 0 -268435585 -268435457 -209 788508655 -129 -1 -32897
            2147450751</internalNodes>
          <leafValues>
            -4.0713149309158325e-01 3.1520393490791321e-01</leafValues></_>
        <_>
          <internalNodes>
            0 -1 57 -2 -16842753 -1 -65537 -4 -1 -3 -131073</internalNodes>
          <leafValues>
            -2.2352927923202515e-01 5.6648600101470947e-01</leafValues></_>
        <_>
          <internalNodes>
            0 -1 128 -98308 -1 -1 -65537 -11 -1 -32771 1039949309</internalNodes>
          <leafValues>
            -4.1055884957313538e-01 2.9202610254287720e-01</leafValues></_>
        <_>
          <internalNodes>
            0 -1 27 -268500994 -285278210 -1 -285278210 -137 -1 -140
            -16973836</internalNodes>
          <leafValues>
            -4.9125480651855469e-01 2.3731909692287445e-01</leafValues></_>
        <_>
          <internalNodes>
            0 -1 40 -220 620756991 -1 -268435457 -137 2004877311 -129
            2147483647</internalNodes>
          <leafValues>
            -4.9818924069404602e-01 2.2509281337261200e-01</leafValues></_>
        <_>
          <internalNodes>
            0 -1 133 -65540 -1 -1 -1 -1 -1 -1 -285278209</internalNodes>
          <leafValues>
            -1.8383103609085083e-01 5.9659051895141602e-01</leafValues></_>
        <_>
          <internalNodes>
            0 -1 1 -1343230162 787415022 -268435478 -420544514
            2147450743 1468006399 -2185 1157038071</internalNodes>
          <leafValues>
            -5.8171898126602173e-01 1.8540585041046143e-01</leafValues></_>
        <_>
          <internalNodes>
            0 -1 19 2147430191 -1 -1 -1 2147450751 -1 2147450871
            2147450879</internalNodes>
          <leafValues>
            -3.8455033302307129e-01 2.3848977684974670e-01</leafValues></_>
        <_>
          <internalNodes>
            0 -1 109 218041439 -32769 -1 -1 788466942 -1 721291519
            171573887</internalNodes>
          <leafValues>
            -8.5354793071746826e-01 1.3176999986171722e-01</leafValues></_>
        <_>
          <internalNodes>
            0 -1 132 -32978 -285212673 -18 -285212673 2147450740
            2147483519 -140 2012741623</internalNodes>
          <leafValues>
            -4.5704030990600586e-01 2.1453253924846649e-01</leafValues></_>
        <_>
          <internalNodes>
            0 -1 116 -65538 -65537 -1 -1 -1 -1 -1 -1</internalNodes>
          <leafValues>
            -1.3371714949607849e-01 1.0558407306671143e+00</leafValues></_></weakClassifiers></_></stages>
  <features>
    <_>
      <rect>
        0 0 6 5</rect></_>
    <_>
      <rect>
        0 1 2 1</rect></_>
    <_>
      <rect>
        0 1 6 4</rect></_>
    <_>
      <rect>
        0 6 3 2</rect></_>
    <_>
      <rect>
        0 7 3 1</rect></_>
    <_>
      <rect>
        0 15 8 1</rect></_>
    <_>
      <rect>
        0 16 7 1</rect></_>
    <_>
      <rect>
        0 18 3 1</rect></_>
    <_>
      <rect>
        1 0 1 1</rect></_>
    <_>
      <rect>
        1 0 2 1</rect></_>
    <_>
      <rect>
        1 1 4 4</rect></_>
    <_>
      <rect>
        1 6 2 2</rect></_>
    <_>
      <rect>
        1 11 3 1</rect></_>
    <_>
      <rect>
        1 12 2 1</rect></_>
    <_>
      <rect>
        2 2 6 5</rect></_>
    <_>
      <rect>
        2 5 3 4</rect></_>
    <_>
      <rect>
        2 12 2 1</rect></_>
    <_>
      <rect>
        3 0 2 1</rect></_>
    <_>
      <rect>
        3 0 3 5</rect></_>
    <_>
      <rect>
        3 6 1 1</rect></_>
    <_>
      <rect>
        4 0 2 1</rect></_>
    <_>
      <rect>
        4 2 3 3</rect></_>
    <_>
      <rect>
        4 3 4 6</rect></_>
    <_>
      <rect>
        4 5 2 5</rect></_>
    <_>
      <rect>
        4 7 3 1</rect></_>
    <_>
      <rect>
        4 8 2 2</rect></_>
    <_>
      <rect>
        4 10 2 1</rect></_>
    <_>
      <rect>
        4 11 1 1</rect></_>
    <_>
      <rect>
        4 12 1 1</rect></_>
    <_>
      <rect>
        4 12 5 1</rect></_>
    <_>
      <rect>
        5 1 4 4</rect></_>
    <_>
      <rect>
        5 4 1 1</rect></_>
    <_>
      <rect>
        5 5 2 3</rect></_>
    <_>
      <rect>
        5 6 1 2</rect></_>
    <_>
      <rect>
        5 7 3 1</rect></_>
    <_>
      <rect>
        5 11 1 1</rect></_>
    <_>
      <rect>
        5 13 5 1</rect></_>
    <_>
      <rect>
        5 14 4 2</rect></_>
    <_>
      <rect>
        5 15 2 1</rect></_>
    <_>
      <rect>
        5 16 5 1</rect></_>
    <_>
      <rect>
        5 16 6 1</rect></_>
    <_>
      <rect>
        5 20 3 1</rect></_>
    <_>
      <rect>
        6 0 2 4</rect></_>
    <_>
      <rect>
        6 0 6 5</rect></_>
    <_>
      <rect>
        6 1 1 1</rect></_>
    <_>
      <rect>
        6 1 4 4</rect></_>
    <_>
      <rect>
        6 7 2 1</rect></_>
    <_>
      <rect>
        6 10 1 1</rect></_>
    <_>
      <rect>
        6 12 4 1</rect></_>
    <_>
      <rect>
        6 18 3 2</rect></_>
    <_>
      <rect>
        7 0 1 2</rect></_>
    <_>
      <rect>
        7 2 2 5</rect></_>
    <_>
      <rect>
        7 2 3 2</rect></_>
    <_>
      <rect>
        7 3 4 3</rect></_>
    <_>
      <rect>
        7 5 4 4</rect></_>
    <_>
      <rect>
        7 8 1 1</rect></_>
    <_>
      <rect>
        7 12 2 1</rect></_>
    <_>
      <rect>
        7 14 3 1</rect></_>
    <_>
      <rect>
        8 1 1 2</rect></_>
    <_>
      <rect>
        8 2 1 2</rect></_>
    <_>
      <rect>
        8 2 2 5</rect></_>
    <_>
      <rect>
        8 3 1 1</rect></_>
    <_>
      <rect>
        8 12 1 1</rect></_>
    <_>
      <rect>
        8 14 1 2</rect></_>
    <_>
      <rect>
        8 14 2 1</rect></_>
    <_>
      <rect>
        8 14 2 2</rect></_>
    <_>
      <rect>
        9 0 2 5</rect></_>
    <_>
      <rect>
        9 1 1 3</rect></_>
    <_>
      <rect>
        9 4 1 1</rect></_>
    <_>
      <rect>
        9 4 5 2</rect></_>
    <_>
      <rect>
        9 7 2 1</rect></_>
    <_>
      <rect>
        9 8 1 1</rect></_>
    <_>
      <rect>
        9 9 2 4</rect></_>
    <_>
      <rect>
        9 13 2 1</rect></_>
    <_>
      <rect>
        9 14 2 1</rect></_>
    <_>
      <rect>
        9 16 1 1</rect></_>
    <_>
      <rect>
        9 18 3 2</rect></_>
    <_>
      <rect>
        10 4 1 4</rect></_>
    <_>
      <rect>
        10 5 1 1</rect></_>
    <_>
      <rect>
        10 5 4 1</rect></_>
    <_>
      <rect>
        10 6 1 1</rect></_>
    <_>
      <rect>
        10 7 1 1</rect></_>
    <_>
      <rect>
        10 7 3 1</rect></_>
    <_>
      <rect>
        10 8 1 1</rect></_>
    <_>
      <rect>
        10 14 2 1</rect></_>
    <_>
      <rect>
        10 16 1 1</rect></_>
    <_>
      <rect>
        11 0 4 4</rect></_>
    <_>
      <rect>
        11 2 3 3</rect></_>
    <_>
      <rect>
        11 3 2 3</rect></_>
    <_>
      <rect>
        11 4 1 1</rect></_>
    <_>
      <rect>
        11 5 1 1</rect></_>
    <_>
      <rect>
        11 6 2 1</rect></_>
    <_>
      <rect>
        11 8 1 1</rect></_>
    <_>
      <rect>
        11 8 2 1</rect></_>
    <_>
      <rect>
        11 11 2 1</rect></_>
    <_>
      <rect>
        11 12 2 1</rect></_>
    <_>
      <rect>
        11 14 1 1</rect></_>
    <_>
      <rect>
        11 15 1 2</rect></_>
    <_>
      <rect>
        11 16 1 1</rect></_>
    <_>
      <rect>
        12 1 1 3</rect></_>
    <_>
      <rect>
        12 1 3 5</rect></_>
    <_>
      <rect>
        12 2 1 2</rect></_>
    <_>
      <rect>
        12 2 1 5</rect></_>
    <_>
      <rect>
        12 2 3 4</rect></_>
    <_>
      <rect>
        12 7 1 1</rect></_>
    <_>
      <rect>
        12 7 2 1</rect></_>
    <_>
      <rect>
        12 9 1 1</rect></_>
    <_>
      <rect>
        12 19 2 1</rect></_>
    <_>
      <rect>
        13 1 3 4</rect></_>
    <_>
      <rect>
        13 2 1 4</rect></_>
    <_>
      <rect>
        13 3 1 1</rect></_>
    <_>
      <rect>
        13 4 2 5</rect></_>
    <_>
      <rect>
        13 5 3 4</rect></_>
    <_>
      <rect>
        13 7 1 1</rect></_>
    <_>
      <rect>
        13 7 2 2</rect></_>
    <_>
      <rect>
        13 11 3 1</rect></_>
    <_>
      <rect>
        13 12 1 2</rect></_>
    <_>
      <rect>
        13 14 1 2</rect></_>
    <_>
      <rect>
        13 15 2 1</rect></_>
    <_>
      <rect>
        14 0 2 1</rect></_>
    <_>
      <rect>
        14 0 3 1</rect></_>
    <_>
      <rect>
        14 2 1 1</rect></_>
    <_>
      <rect>
        14 6 2 4</rect></_>
    <_>
      <rect>
        14 8 2 2</rect></_>
    <_>
      <rect>
        14 10 1 1</rect></_>
    <_>
      <rect>
        14 10 2 1</rect></_>
    <_>
      <rect>
        14 11 2 1</rect></_>
    <_>
      <rect>
        15 0 2 1</rect></_>
    <_>
      <rect>
        15 2 1 1</rect></_>
    <_>
      <rect>
        15 7 3 1</rect></_>
    <_>
      <rect>
        15 12 2 1</rect></_>
    <_>
      <rect>
        15 18 3 1</rect></_>
    <_>
      <rect>
        16 0 2 1</rect></_>
    <_>
      <rect>
        16 4 1 1</rect></_>
    <_>
      <rect>
        16 11 1 1</rect></_>
    <_>
      <rect>
        16 12 2 1</rect></_>
    <_>
      <rect>
        17 0 2 1</rect></_>
    <_>
      <rect>
        17 6 2 2</rect></_>
    <_>
      <rect>
        17 12 1 1</rect></_>
    <_>
      <rect>
        18 6 1 1</rect></_>
    <_>
      <rect>
        18 11 1 1</rect></_>
    <_>
      <rect>
        21 1 1 1</rect></_></features></cascade>
</opencv_storage>
