<?xml version="1.0"?>
<opencv_storage>
<stage8>
  <maxWeakCount>12</maxWeakCount>
  <stageThreshold>-1.4468548297882080e+00</stageThreshold>
  <weakClassifiers>
    <_>
      <internalNodes>
        0 -1 816 -1 -268435457 -1 805306367 -1 -1 -1 2147483647</internalNodes>
      <leafValues>
        -3.5563179850578308e-01 7.6768916845321655e-01</leafValues></_>
    <_>
      <internalNodes>
        0 -1 3044 -28 -1 -2 -2 -11 -1 -12 -134742027</internalNodes>
      <leafValues>
        -5.4955190420150757e-01 4.8528197407722473e-01</leafValues></_>
    <_>
      <internalNodes>
        0 -1 6949 788475647 1862270975 -1 -1 2147450879 -1 -1 -1</internalNodes>
      <leafValues>
        -5.7057404518127441e-01 4.3537428975105286e-01</leafValues></_>
    <_>
      <internalNodes>
        0 -1 6874 -1 -1 -1 -1 -1 -1 -1 -32779</internalNodes>
      <leafValues>
        -2.8423413634300232e-01 7.8831923007965088e-01</leafValues></_>
    <_>
      <internalNodes>
        0 -1 6356 -17 805306367 -1 -1342177281 -1 1073741823 -4115
        83230719</internalNodes>
      <leafValues>
        -5.0123655796051025e-01 3.7792423367500305e-01</leafValues></_>
    <_>
      <internalNodes>
        0 -1 7780 -1 -1 -2 -16777217 -1 -1 -12 -134217729</internalNodes>
      <leafValues>
        -3.0136135220527649e-01 5.7932341098785400e-01</leafValues></_>
    <_>
      <internalNodes>
        0 -1 5632 -2 -65537 -1 -65537 -11 -131073 -3 -131073</internalNodes>
      <leafValues>
        -2.5931227207183838e-01 6.3997811079025269e-01</leafValues></_>
    <_>
      <internalNodes>
        0 -1 5868 -1358975190 -1358954497 -82 -285282306 -129 -1 -10 -2</internalNodes>
      <leafValues>
        -5.6868392229080200e-01 2.6575794816017151e-01</leafValues></_>
    <_>
      <internalNodes>
        0 -1 6517 2147483647 2147483647 -1 2147483647 2147446639
        2147483647 2147434367 2147450879</internalNodes>
      <leafValues>
        -4.8944878578186035e-01 3.1720256805419922e-01</leafValues></_>
    <_>
      <internalNodes>
        0 -1 3726 -16777502 788529151 -1 -1 -137 2147483647 -129
        2147483647</internalNodes>
      <leafValues>
        -4.6612784266471863e-01 2.8541049361228943e-01</leafValues></_>
    <_>
      <internalNodes>
        0 -1 4870 -16973904 -16973825 -16842832 687648504 -1 -1 -10
        83627812</internalNodes>
      <leafValues>
        -8.6302757263183594e-01 1.8799531459808350e-01</leafValues></_>
    <_>
      <internalNodes>
        0 -1 341 -285217042 -268435457 -1 -1 2147450743 2147483647 -1 -1</internalNodes>
      <leafValues>
        -4.1810894012451172e-01 3.3486995100975037e-01</leafValues></_></weakClassifiers></stage8>
</opencv_storage>
